svm_type c_svc
kernel_type rbf
gamma 0.1
nr_class 2
total_sv 639
rho 0.4257786283326366
label 4 2
nr_sv 227 412
SV
1.0 1:1099510.0 2:10.0 3:4.0 4:3.0 5:1.0 6:3.0 7:3.0 8:6.0 9:5.0 10:2.0 
0.42815196117999055 1:1100524.0 2:6.0 3:10.0 4:10.0 5:2.0 6:8.0 7:10.0 8:7.0 9:3.0 10:3.0 
1.0 1:1102573.0 2:5.0 3:6.0 4:5.0 5:6.0 6:10.0 7:1.0 8:3.0 9:1.0 10:1.0 
1.0 1:1103608.0 2:10.0 3:10.0 4:10.0 5:4.0 6:8.0 7:1.0 8:8.0 9:10.0 10:1.0 
1.0 1:1105257.0 2:3.0 3:7.0 4:7.0 5:4.0 6:4.0 7:9.0 8:4.0 9:8.0 10:1.0 
1.0 1:1106829.0 2:7.0 3:8.0 4:7.0 5:2.0 6:4.0 7:8.0 8:3.0 9:8.0 10:2.0 
1.0 1:1108370.0 2:9.0 3:5.0 4:8.0 5:1.0 6:2.0 7:3.0 8:2.0 9:1.0 10:5.0 
1.0 1:1108449.0 2:5.0 3:3.0 4:3.0 5:4.0 6:2.0 7:4.0 8:3.0 9:4.0 10:1.0 
1.0 1:1110102.0 2:10.0 3:3.0 4:6.0 5:2.0 6:3.0 7:5.0 8:4.0 9:10.0 10:2.0 
1.0 1:1110503.0 2:5.0 3:5.0 4:5.0 5:8.0 6:10.0 7:8.0 8:7.0 9:3.0 10:7.0 
1.0 1:1110524.0 2:10.0 3:5.0 4:5.0 5:6.0 6:8.0 7:8.0 8:7.0 9:1.0 10:1.0 
1.0 1:1111249.0 2:10.0 3:6.0 4:6.0 5:3.0 6:4.0 7:5.0 8:3.0 9:6.0 10:1.0 
1.0 1:1112209.0 2:8.0 3:10.0 4:10.0 5:1.0 6:3.0 7:6.0 8:3.0 9:9.0 10:1.0 
1.0 1:1113038.0 2:8.0 3:2.0 4:4.0 5:1.0 6:5.0 7:1.0 8:5.0 9:4.0 10:4.0 
1.0 1:1113483.0 2:5.0 3:2.0 4:3.0 5:1.0 6:6.0 7:10.0 8:5.0 9:1.0 10:1.0 
1.0 1:1113906.0 2:9.0 3:5.0 4:5.0 5:2.0 6:2.0 7:2.0 8:5.0 9:1.0 10:1.0 
1.0 1:1115282.0 2:5.0 3:3.0 4:5.0 5:5.0 6:3.0 7:3.0 8:4.0 9:10.0 10:1.0 
0.42575701047777925 1:1116116.0 2:9.0 3:10.0 4:10.0 5:1.0 6:10.0 7:8.0 8:3.0 9:3.0 10:1.0 
1.0 1:1116132.0 2:6.0 3:3.0 4:4.0 5:1.0 6:5.0 7:2.0 8:3.0 9:9.0 10:1.0 
1.0 1:1116998.0 2:10.0 3:4.0 4:2.0 5:1.0 6:3.0 7:2.0 8:4.0 9:3.0 10:10.0 
1.0 1:1118039.0 2:5.0 3:3.0 4:4.0 5:1.0 6:8.0 7:10.0 8:4.0 9:9.0 10:1.0 
1.0 1:1120559.0 2:8.0 3:3.0 4:8.0 5:3.0 6:4.0 7:9.0 8:8.0 9:9.0 10:8.0 
1.0 1:1123061.0 2:6.0 3:10.0 4:2.0 5:8.0 6:10.0 7:2.0 8:7.0 9:8.0 10:10.0 
1.0 1:1125035.0 2:9.0 3:4.0 4:5.0 5:10.0 6:6.0 7:10.0 8:4.0 9:8.0 10:1.0 
1.0 1:1126417.0 2:10.0 3:6.0 4:4.0 5:1.0 6:3.0 7:4.0 8:3.0 9:2.0 10:3.0 
1.0 1:1147699.0 2:3.0 3:5.0 4:7.0 5:8.0 6:8.0 7:9.0 8:7.0 9:10.0 10:7.0 
1.0 1:1147748.0 2:5.0 3:10.0 4:6.0 5:1.0 6:10.0 7:4.0 8:4.0 9:10.0 10:10.0 
1.0 1:1148278.0 2:3.0 3:3.0 4:6.0 5:4.0 6:5.0 7:8.0 8:4.0 9:4.0 10:1.0 
1.0 1:1148873.0 2:3.0 3:6.0 4:6.0 5:6.0 6:5.0 7:10.0 8:6.0 9:8.0 10:3.0 
1.0 1:1165926.0 2:9.0 3:6.0 4:9.0 5:2.0 6:10.0 7:6.0 8:2.0 9:9.0 10:10.0 
1.0 1:1166630.0 2:7.0 3:5.0 4:6.0 5:10.0 6:5.0 7:10.0 8:7.0 9:9.0 10:4.0 
1.0 1:1166654.0 2:10.0 3:3.0 4:5.0 5:1.0 6:10.0 7:5.0 8:3.0 9:10.0 10:2.0 
1.0 1:1167439.0 2:2.0 3:3.0 4:4.0 5:4.0 6:2.0 7:5.0 8:2.0 9:5.0 10:1.0 
1.0 1:1168359.0 2:8.0 3:2.0 4:3.0 5:1.0 6:6.0 7:3.0 8:7.0 9:1.0 10:1.0 
1.0 1:1168736.0 2:10.0 3:10.0 4:10.0 5:10.0 6:10.0 7:1.0 8:8.0 9:8.0 10:8.0 
1.0 1:1169049.0 2:7.0 3:3.0 4:4.0 5:4.0 6:3.0 7:3.0 8:3.0 9:2.0 10:7.0 
1.0 1:1170419.0 2:10.0 3:10.0 4:10.0 5:8.0 6:2.0 7:10.0 8:4.0 9:1.0 10:1.0 
1.0 1:1170420.0 2:1.0 3:6.0 4:8.0 5:10.0 6:8.0 7:10.0 8:5.0 9:7.0 10:1.0 
1.0 1:1171710.0 2:6.0 3:5.0 4:4.0 5:4.0 6:3.0 7:9.0 8:7.0 9:8.0 10:3.0 
1.0 1:1171845.0 2:8.0 3:6.0 4:4.0 5:3.0 6:5.0 7:9.0 8:3.0 9:1.0 10:1.0 
1.0 1:1172152.0 2:10.0 3:3.0 4:3.0 5:10.0 6:2.0 7:10.0 8:7.0 9:3.0 10:3.0 
1.0 1:1173216.0 2:10.0 3:10.0 4:10.0 5:3.0 6:10.0 7:8.0 8:8.0 9:1.0 10:1.0 
1.0 1:1173509.0 2:4.0 3:5.0 4:5.0 5:10.0 6:4.0 7:10.0 8:7.0 9:5.0 10:8.0 
1.0 1:1174131.0 2:10.0 3:10.0 4:10.0 5:2.0 6:10.0 7:10.0 8:5.0 9:3.0 10:3.0 
1.0 1:1174428.0 2:5.0 3:3.0 4:5.0 5:1.0 6:8.0 7:10.0 8:5.0 9:3.0 10:1.0 
1.0 1:1175937.0 2:5.0 3:4.0 4:6.0 5:7.0 6:9.0 7:7.0 8:8.0 9:10.0 10:1.0 
1.0 1:1176881.0 2:7.0 3:5.0 4:3.0 5:7.0 6:4.0 7:10.0 8:7.0 9:5.0 10:5.0 
1.0 1:1177399.0 2:8.0 3:3.0 4:5.0 5:4.0 6:5.0 7:10.0 8:1.0 9:6.0 10:2.0 
1.0 1:1180194.0 2:5.0 3:10.0 4:8.0 5:10.0 6:8.0 7:10.0 8:3.0 9:6.0 10:3.0 
1.0 1:1183983.0 2:9.0 3:5.0 4:5.0 5:4.0 6:4.0 7:5.0 8:4.0 9:3.0 10:3.0 
1.0 1:1185609.0 2:3.0 3:4.0 4:5.0 5:2.0 6:6.0 7:8.0 8:4.0 9:1.0 10:1.0 
1.0 1:1187805.0 2:8.0 3:8.0 4:7.0 5:4.0 6:10.0 7:10.0 8:7.0 9:8.0 10:7.0 
1.0 1:1189266.0 2:7.0 3:2.0 4:4.0 5:1.0 6:6.0 7:10.0 8:5.0 9:4.0 10:3.0 
1.0 1:1189286.0 2:10.0 3:10.0 4:8.0 5:6.0 6:4.0 7:5.0 8:8.0 9:10.0 10:1.0 
1.0 1:1192325.0 2:5.0 3:5.0 4:5.0 5:6.0 6:3.0 7:10.0 8:3.0 9:1.0 10:1.0 
1.0 1:1196295.0 2:9.0 3:9.0 4:10.0 5:3.0 6:6.0 7:10.0 8:7.0 9:10.0 10:6.0 
1.0 1:1196915.0 2:10.0 3:7.0 4:7.0 5:4.0 6:5.0 7:10.0 8:5.0 9:7.0 10:2.0 
1.0 1:1197993.0 2:5.0 3:6.0 4:7.0 5:8.0 6:8.0 7:10.0 8:3.0 9:10.0 10:3.0 
1.0 1:1198128.0 2:10.0 3:8.0 4:10.0 5:10.0 6:6.0 7:1.0 8:3.0 9:1.0 10:10.0 
1.0 1:1200847.0 2:6.0 3:10.0 4:10.0 5:10.0 6:8.0 7:10.0 8:10.0 9:10.0 10:7.0 
1.0 1:1200892.0 2:8.0 3:6.0 4:5.0 5:4.0 6:3.0 7:10.0 8:6.0 9:1.0 10:1.0 
1.0 1:1200952.0 2:5.0 3:8.0 4:7.0 5:7.0 6:10.0 7:10.0 8:5.0 9:7.0 10:1.0 
1.0 1:1201936.0 2:5.0 3:10.0 4:10.0 5:3.0 6:8.0 7:1.0 8:5.0 9:10.0 10:3.0 
1.0 1:1202812.0 2:5.0 3:3.0 4:3.0 5:3.0 6:6.0 7:10.0 8:3.0 9:1.0 10:1.0 
1.0 1:1205138.0 2:5.0 3:8.0 4:8.0 5:8.0 6:5.0 7:10.0 8:7.0 9:8.0 10:1.0 
1.0 1:1205579.0 2:8.0 3:7.0 4:6.0 5:4.0 6:4.0 7:10.0 8:5.0 9:1.0 10:1.0 
1.0 1:1206695.0 2:1.0 3:5.0 4:8.0 5:6.0 6:5.0 7:8.0 8:7.0 9:10.0 10:1.0 
1.0 1:1206841.0 2:10.0 3:5.0 4:6.0 5:10.0 6:6.0 7:10.0 8:7.0 9:7.0 10:10.0 
1.0 1:1207986.0 2:5.0 3:8.0 4:4.0 5:10.0 6:5.0 7:8.0 8:9.0 9:10.0 10:1.0 
1.0 1:1210963.0 2:10.0 3:10.0 4:10.0 5:8.0 6:6.0 7:8.0 8:7.0 9:10.0 10:1.0 
1.0 1:1211202.0 2:7.0 3:5.0 4:10.0 5:10.0 6:10.0 7:10.0 8:4.0 9:10.0 10:3.0 
1.0 1:1214966.0 2:9.0 3:7.0 4:7.0 5:5.0 6:5.0 7:10.0 8:7.0 9:8.0 10:3.0 
1.0 1:1216694.0 2:10.0 3:8.0 4:8.0 5:4.0 6:10.0 7:10.0 8:8.0 9:1.0 10:1.0 
1.0 1:1218105.0 2:5.0 3:10.0 4:10.0 5:9.0 6:6.0 7:10.0 8:7.0 9:10.0 10:5.0 
1.0 1:1218741.0 2:10.0 3:10.0 4:9.0 5:3.0 6:7.0 7:5.0 8:3.0 9:5.0 10:1.0 
1.0 1:1219525.0 2:8.0 3:10.0 4:10.0 5:10.0 6:5.0 7:10.0 8:8.0 9:10.0 10:6.0 
1.0 1:1219859.0 2:8.0 3:10.0 4:8.0 5:8.0 6:4.0 7:8.0 8:7.0 9:7.0 10:1.0 
1.0 1:1221863.0 2:10.0 3:10.0 4:10.0 5:10.0 6:7.0 7:10.0 8:7.0 9:10.0 10:4.0 
1.0 1:1222047.0 2:10.0 3:10.0 4:10.0 5:10.0 6:3.0 7:10.0 8:10.0 9:6.0 10:1.0 
1.0 1:1222936.0 2:8.0 3:7.0 4:8.0 5:7.0 6:5.0 7:5.0 8:5.0 9:10.0 10:2.0 
1.0 1:1223793.0 2:6.0 3:10.0 4:7.0 5:7.0 6:6.0 7:4.0 8:8.0 9:10.0 10:2.0 
1.0 1:1225799.0 2:10.0 3:6.0 4:4.0 5:3.0 6:10.0 7:10.0 8:9.0 9:10.0 10:1.0 
1.0 1:1226012.0 2:4.0 3:1.0 4:1.0 5:3.0 6:1.0 7:5.0 8:2.0 9:1.0 10:1.0 
1.0 1:1226612.0 2:7.0 3:5.0 4:6.0 5:3.0 6:3.0 7:8.0 8:7.0 9:4.0 10:1.0 
1.0 1:1227210.0 2:10.0 3:5.0 4:5.0 5:6.0 6:3.0 7:10.0 8:7.0 9:9.0 10:2.0 
1.0 1:1227481.0 2:10.0 3:5.0 4:7.0 5:4.0 6:4.0 7:10.0 8:8.0 9:9.0 10:1.0 
1.0 1:1228152.0 2:8.0 3:9.0 4:9.0 5:5.0 6:3.0 7:5.0 8:7.0 9:7.0 10:1.0 
1.0 1:1230175.0 2:10.0 3:10.0 4:10.0 5:3.0 6:10.0 7:10.0 8:9.0 9:10.0 10:1.0 
1.0 1:1230688.0 2:7.0 3:4.0 4:7.0 5:4.0 6:3.0 7:7.0 8:7.0 9:6.0 10:1.0 
1.0 1:1231387.0 2:6.0 3:8.0 4:7.0 5:5.0 6:6.0 7:8.0 8:8.0 9:9.0 10:2.0 
1.0 1:1232225.0 2:10.0 3:4.0 4:5.0 5:5.0 6:5.0 7:10.0 8:4.0 9:1.0 10:1.0 
1.0 1:1241559.0 2:10.0 3:8.0 4:8.0 5:2.0 6:8.0 7:10.0 8:4.0 9:8.0 10:10.0 
1.0 1:1241679.0 2:9.0 3:8.0 4:8.0 5:5.0 6:6.0 7:2.0 8:4.0 9:10.0 10:4.0 
1.0 1:1242364.0 2:8.0 3:10.0 4:10.0 5:8.0 6:6.0 7:9.0 8:3.0 9:10.0 10:10.0 
1.0 1:1243256.0 2:10.0 3:4.0 4:3.0 5:2.0 6:3.0 7:10.0 8:5.0 9:3.0 10:2.0 
1.0 1:144888.0 2:8.0 3:10.0 4:10.0 5:8.0 6:5.0 7:10.0 8:7.0 9:8.0 10:1.0 
1.0 1:145447.0 2:8.0 3:4.0 4:4.0 5:1.0 6:2.0 7:9.0 8:3.0 9:3.0 10:1.0 
1.0 1:191250.0 2:10.0 3:4.0 4:4.0 5:10.0 6:2.0 7:10.0 8:5.0 9:3.0 10:3.0 
0.9973749339910345 1:1100524.0 2:6.0 3:10.0 4:10.0 5:2.0 6:8.0 7:10.0 8:7.0 9:3.0 10:3.0 
1.0 1:1116116.0 2:9.0 3:10.0 4:10.0 5:1.0 6:10.0 7:8.0 8:3.0 9:3.0 10:1.0 
1.0 1:1168736.0 2:5.0 3:6.0 4:6.0 5:2.0 6:4.0 7:10.0 8:3.0 9:6.0 10:1.0 
1.0 1:255644.0 2:10.0 3:5.0 4:8.0 5:10.0 6:3.0 7:10.0 8:5.0 9:1.0 10:3.0 
1.0 1:263538.0 2:5.0 3:10.0 4:10.0 5:6.0 6:10.0 7:10.0 8:10.0 9:6.0 10:5.0 
1.0 1:274137.0 2:8.0 3:8.0 4:9.0 5:4.0 6:5.0 7:10.0 8:7.0 9:8.0 10:1.0 
1.0 1:303213.0 2:10.0 3:4.0 4:4.0 5:10.0 6:6.0 7:10.0 8:5.0 9:5.0 10:1.0 
1.0 1:314428.0 2:7.0 3:9.0 4:4.0 5:10.0 6:10.0 7:3.0 8:5.0 9:3.0 10:3.0 
1.0 1:1198641.0 2:10.0 3:10.0 4:6.0 5:3.0 6:3.0 7:10.0 8:4.0 9:3.0 10:2.0 
0.42995065404102206 1:320675.0 2:3.0 3:3.0 4:5.0 5:2.0 6:3.0 7:10.0 8:7.0 9:1.0 10:1.0 
1.0 1:324427.0 2:10.0 3:8.0 4:8.0 5:2.0 6:3.0 7:4.0 8:8.0 9:7.0 10:8.0 
1.0 1:390840.0 2:8.0 3:4.0 4:7.0 5:1.0 6:3.0 7:10.0 8:3.0 9:9.0 10:2.0 
0.9959621729838177 1:320675.0 2:3.0 3:3.0 4:5.0 5:2.0 6:3.0 7:10.0 8:7.0 9:1.0 10:1.0 
1.0 1:428903.0 2:7.0 3:2.0 4:4.0 5:1.0 6:3.0 7:4.0 8:3.0 9:3.0 10:1.0 
1.0 1:476903.0 2:10.0 3:5.0 4:7.0 5:3.0 6:3.0 7:7.0 8:3.0 9:3.0 10:8.0 
1.0 1:488173.0 2:1.0 3:4.0 4:3.0 5:10.0 6:4.0 7:10.0 8:5.0 9:6.0 10:1.0 
1.0 1:492268.0 2:10.0 3:4.0 4:6.0 5:1.0 6:2.0 7:10.0 8:5.0 9:3.0 10:1.0 
1.0 1:508234.0 2:7.0 3:4.0 4:5.0 5:10.0 6:2.0 7:10.0 8:3.0 9:8.0 10:2.0 
1.0 1:527363.0 2:8.0 3:10.0 4:10.0 5:10.0 6:8.0 7:10.0 8:10.0 9:7.0 10:3.0 
1.0 1:529329.0 2:10.0 3:10.0 4:10.0 5:10.0 6:10.0 7:10.0 8:4.0 9:10.0 10:10.0 
1.0 1:543558.0 2:6.0 3:1.0 4:3.0 5:1.0 6:4.0 7:5.0 8:5.0 9:10.0 10:1.0 
1.0 1:555977.0 2:5.0 3:6.0 4:6.0 5:8.0 6:6.0 7:10.0 8:4.0 9:10.0 10:4.0 
1.0 1:601265.0 2:10.0 3:4.0 4:4.0 5:6.0 6:2.0 7:10.0 8:2.0 9:3.0 10:1.0 
1.0 1:606722.0 2:5.0 3:5.0 4:7.0 5:8.0 6:6.0 7:10.0 8:7.0 9:4.0 10:1.0 
1.0 1:63375.0 2:9.0 3:1.0 4:2.0 5:6.0 6:4.0 7:10.0 8:7.0 9:7.0 10:2.0 
1.0 1:635844.0 2:8.0 3:4.0 4:10.0 5:5.0 6:4.0 7:4.0 8:7.0 9:10.0 10:1.0 
1.0 1:640744.0 2:10.0 3:10.0 4:10.0 5:7.0 6:9.0 7:10.0 8:7.0 9:10.0 10:10.0 
1.0 1:653777.0 2:8.0 3:3.0 4:4.0 5:9.0 6:3.0 7:10.0 8:3.0 9:3.0 10:1.0 
1.0 1:659642.0 2:10.0 3:8.0 4:4.0 5:4.0 6:4.0 7:10.0 8:3.0 9:10.0 10:4.0 
1.0 1:667204.0 2:7.0 3:8.0 4:7.0 5:6.0 6:4.0 7:3.0 8:8.0 9:8.0 10:4.0 
1.0 1:691628.0 2:8.0 3:6.0 4:4.0 5:10.0 6:10.0 7:1.0 8:3.0 9:5.0 10:1.0 
1.0 1:706426.0 2:5.0 3:5.0 4:5.0 5:2.0 6:5.0 7:10.0 8:4.0 9:3.0 10:1.0 
1.0 1:709287.0 2:6.0 3:8.0 4:7.0 5:8.0 6:6.0 7:8.0 8:8.0 9:9.0 10:1.0 
1.0 1:730881.0 2:7.0 3:6.0 4:3.0 5:2.0 6:5.0 7:10.0 8:7.0 9:4.0 10:6.0 
1.0 1:733823.0 2:5.0 3:4.0 4:6.0 5:10.0 6:2.0 7:10.0 8:4.0 9:1.0 10:1.0 
1.0 1:752904.0 2:10.0 3:1.0 4:1.0 5:1.0 6:2.0 7:10.0 8:5.0 9:4.0 10:1.0 
1.0 1:760001.0 2:8.0 3:10.0 4:3.0 5:2.0 6:6.0 7:4.0 8:3.0 9:10.0 10:1.0 
1.0 1:760239.0 2:10.0 3:4.0 4:6.0 5:4.0 6:5.0 7:10.0 8:7.0 9:1.0 10:1.0 
1.0 1:76389.0 2:10.0 3:4.0 4:7.0 5:2.0 6:2.0 7:8.0 8:6.0 9:1.0 10:1.0 
1.0 1:785208.0 2:5.0 3:4.0 4:6.0 5:6.0 6:4.0 7:10.0 8:4.0 9:3.0 10:1.0 
1.0 1:785615.0 2:8.0 3:6.0 4:7.0 5:3.0 6:3.0 7:10.0 8:3.0 9:4.0 10:2.0 
1.0 1:797327.0 2:6.0 3:5.0 4:5.0 5:8.0 6:4.0 7:10.0 8:3.0 9:4.0 10:1.0 
1.0 1:806423.0 2:8.0 3:5.0 4:5.0 5:5.0 6:2.0 7:10.0 8:4.0 9:3.0 10:1.0 
1.0 1:809912.0 2:10.0 3:3.0 4:3.0 5:1.0 6:2.0 7:10.0 8:7.0 9:6.0 10:1.0 
1.0 1:822829.0 2:7.0 3:6.0 4:4.0 5:8.0 6:10.0 7:10.0 8:9.0 9:5.0 10:3.0 
1.0 1:832226.0 2:3.0 3:4.0 4:4.0 5:10.0 6:5.0 7:1.0 8:3.0 9:3.0 10:1.0 
1.0 1:832567.0 2:4.0 3:2.0 4:3.0 5:5.0 6:3.0 7:8.0 8:7.0 9:6.0 10:1.0 
1.0 1:850831.0 2:2.0 3:7.0 4:10.0 5:10.0 6:7.0 7:10.0 8:4.0 9:9.0 10:4.0 
1.0 1:859164.0 2:5.0 3:3.0 4:3.0 5:1.0 6:3.0 7:3.0 8:3.0 9:3.0 10:3.0 
1.0 1:859350.0 2:8.0 3:10.0 4:10.0 5:7.0 6:10.0 7:10.0 8:7.0 9:3.0 10:8.0 
1.0 1:866325.0 2:8.0 3:10.0 4:5.0 5:3.0 6:8.0 7:4.0 8:4.0 9:10.0 10:3.0 
1.0 1:873549.0 2:10.0 3:3.0 4:5.0 5:4.0 6:3.0 7:7.0 8:3.0 9:5.0 10:3.0 
1.0 1:877291.0 2:6.0 3:10.0 4:10.0 5:10.0 6:10.0 7:10.0 8:8.0 9:10.0 10:10.0 
1.0 1:877943.0 2:3.0 3:10.0 4:3.0 5:10.0 6:6.0 7:10.0 8:5.0 9:1.0 10:4.0 
1.0 1:95719.0 2:6.0 3:10.0 4:10.0 5:10.0 6:8.0 7:10.0 8:7.0 9:10.0 10:7.0 
1.0 1:160296.0 2:5.0 3:8.0 4:8.0 5:10.0 6:5.0 7:10.0 8:8.0 9:10.0 10:3.0 
1.0 1:846423.0 2:10.0 3:6.0 4:3.0 5:6.0 6:4.0 7:10.0 8:7.0 9:8.0 10:4.0 
1.0 1:1080233.0 2:7.0 3:6.0 4:6.0 5:3.0 6:2.0 7:10.0 8:7.0 9:1.0 10:1.0 
1.0 1:1151734.0 2:10.0 3:8.0 4:7.0 5:4.0 6:3.0 7:10.0 8:7.0 9:9.0 10:1.0 
1.0 1:1211265.0 2:3.0 3:10.0 4:8.0 5:7.0 6:6.0 7:9.0 8:9.0 9:3.0 10:8.0 
1.0 1:1238633.0 2:10.0 3:10.0 4:10.0 5:6.0 6:8.0 7:4.0 8:8.0 9:5.0 10:1.0 
1.0 1:1238948.0 2:8.0 3:5.0 4:6.0 5:2.0 6:3.0 7:10.0 8:6.0 9:6.0 10:1.0 
1.0 1:1239347.0 2:8.0 3:7.0 4:8.0 5:5.0 6:10.0 7:10.0 8:7.0 9:2.0 10:1.0 
1.0 1:1257200.0 2:10.0 3:10.0 4:10.0 5:7.0 6:10.0 7:10.0 8:8.0 9:2.0 10:1.0 
1.0 1:1258549.0 2:9.0 3:10.0 4:10.0 5:10.0 6:10.0 7:10.0 8:10.0 9:10.0 10:1.0 
1.0 1:1266154.0 2:8.0 3:7.0 4:8.0 5:2.0 6:4.0 7:2.0 8:5.0 9:10.0 10:1.0 
1.0 1:1294562.0 2:10.0 3:8.0 4:10.0 5:1.0 6:3.0 7:10.0 8:5.0 9:1.0 10:1.0 
1.0 1:1295186.0 2:10.0 3:10.0 4:10.0 5:1.0 6:6.0 7:1.0 8:2.0 9:8.0 10:1.0 
1.0 1:608157.0 2:10.0 3:4.0 4:3.0 5:10.0 6:4.0 7:10.0 8:10.0 9:1.0 10:1.0 
1.0 1:1193544.0 2:5.0 3:7.0 4:9.0 5:8.0 6:6.0 7:10.0 8:8.0 9:10.0 10:1.0 
1.0 1:1230994.0 2:4.0 3:5.0 4:5.0 5:8.0 6:6.0 7:10.0 8:10.0 9:7.0 10:1.0 
1.0 1:1246562.0 2:10.0 3:2.0 4:2.0 5:1.0 6:2.0 7:6.0 8:1.0 9:1.0 10:2.0 
1.0 1:1257470.0 2:10.0 3:6.0 4:5.0 5:8.0 6:5.0 7:10.0 8:8.0 9:6.0 10:1.0 
1.0 1:1259008.0 2:8.0 3:8.0 4:9.0 5:6.0 6:6.0 7:3.0 8:10.0 9:10.0 10:1.0 
1.0 1:1296572.0 2:10.0 3:9.0 4:8.0 5:7.0 6:6.0 7:4.0 8:7.0 9:10.0 10:3.0 
1.0 1:1298416.0 2:10.0 3:6.0 4:6.0 5:2.0 6:4.0 7:10.0 8:9.0 9:7.0 10:1.0 
1.0 1:1299596.0 2:6.0 3:6.0 4:6.0 5:5.0 6:4.0 7:10.0 8:7.0 9:6.0 10:2.0 
1.0 1:1299161.0 2:4.0 3:8.0 4:7.0 5:10.0 6:4.0 7:10.0 8:7.0 9:5.0 10:1.0 
1.0 1:1318169.0 2:9.0 3:10.0 4:10.0 5:10.0 6:10.0 7:5.0 8:10.0 9:10.0 10:10.0 
1.0 1:474162.0 2:8.0 3:7.0 4:8.0 5:5.0 6:5.0 7:10.0 8:9.0 9:10.0 10:1.0 
1.0 1:1073960.0 2:10.0 3:10.0 4:10.0 5:10.0 6:6.0 7:10.0 8:8.0 9:1.0 10:5.0 
1.0 1:1076352.0 2:3.0 3:6.0 4:4.0 5:10.0 6:3.0 7:3.0 8:3.0 9:4.0 10:1.0 
1.0 1:1084139.0 2:6.0 3:3.0 4:2.0 5:1.0 6:3.0 7:4.0 8:4.0 9:1.0 10:1.0 
1.0 1:1119189.0 2:5.0 3:8.0 4:9.0 5:4.0 6:3.0 7:10.0 8:7.0 9:1.0 10:1.0 
1.0 1:1142706.0 2:5.0 3:10.0 4:10.0 5:10.0 6:6.0 7:10.0 8:6.0 9:5.0 10:2.0 
1.0 1:1286943.0 2:8.0 3:10.0 4:10.0 5:10.0 6:7.0 7:5.0 8:4.0 9:8.0 10:7.0 
1.0 1:1306282.0 2:6.0 3:6.0 4:7.0 5:10.0 6:3.0 7:10.0 8:8.0 9:10.0 10:2.0 
1.0 1:1313325.0 2:4.0 3:10.0 4:4.0 5:7.0 6:3.0 7:10.0 8:9.0 9:10.0 10:1.0 
1.0 1:1330439.0 2:4.0 3:7.0 4:8.0 5:3.0 6:4.0 7:10.0 8:9.0 9:1.0 10:1.0 
1.0 1:412300.0 2:10.0 3:4.0 4:5.0 5:4.0 6:3.0 7:5.0 8:7.0 9:3.0 10:1.0 
1.0 1:672113.0 2:7.0 3:5.0 4:6.0 5:10.0 6:4.0 7:10.0 8:5.0 9:3.0 10:1.0 
1.0 1:837480.0 2:7.0 3:4.0 4:4.0 5:3.0 6:4.0 7:10.0 8:6.0 9:9.0 10:1.0 
1.0 1:1222464.0 2:6.0 3:10.0 4:10.0 5:10.0 6:4.0 7:10.0 8:7.0 9:10.0 10:1.0 
1.0 1:1241035.0 2:7.0 3:8.0 4:3.0 5:7.0 6:4.0 7:5.0 8:7.0 9:8.0 10:2.0 
1.0 1:1331412.0 2:5.0 3:7.0 4:10.0 5:10.0 6:5.0 7:10.0 8:10.0 9:10.0 10:1.0 
1.0 1:1343068.0 2:8.0 3:4.0 4:4.0 5:1.0 6:6.0 7:10.0 8:2.0 9:5.0 10:2.0 
1.0 1:1343374.0 2:10.0 3:10.0 4:8.0 5:10.0 6:6.0 7:5.0 8:10.0 9:3.0 10:1.0 
1.0 1:1344121.0 2:8.0 3:10.0 4:4.0 5:4.0 6:8.0 7:10.0 8:8.0 9:2.0 10:1.0 
1.0 1:142932.0 2:7.0 3:6.0 4:10.0 5:5.0 6:3.0 7:10.0 8:9.0 9:10.0 10:2.0 
1.0 1:378275.0 2:10.0 3:9.0 4:7.0 5:3.0 6:4.0 7:2.0 8:7.0 9:7.0 10:1.0 
1.0 1:878358.0 2:5.0 3:7.0 4:10.0 5:6.0 6:5.0 7:10.0 8:7.0 9:5.0 10:1.0 
1.0 1:1107684.0 2:6.0 3:10.0 4:5.0 5:5.0 6:4.0 7:10.0 8:6.0 9:10.0 10:1.0 
1.0 1:1254538.0 2:8.0 3:10.0 4:10.0 5:10.0 6:6.0 7:10.0 8:10.0 9:10.0 10:1.0 
1.0 1:1268275.0 2:9.0 3:8.0 4:8.0 5:9.0 6:6.0 7:3.0 8:4.0 9:1.0 10:1.0 
1.0 1:1294261.0 2:4.0 3:10.0 4:8.0 5:5.0 6:4.0 7:1.0 8:10.0 9:1.0 10:1.0 
1.0 1:1295529.0 2:2.0 3:5.0 4:7.0 5:6.0 6:4.0 7:10.0 8:7.0 9:6.0 10:1.0 
1.0 1:1298484.0 2:10.0 3:3.0 4:4.0 5:5.0 6:3.0 7:10.0 8:4.0 9:1.0 10:1.0 
1.0 1:1315506.0 2:4.0 3:8.0 4:6.0 5:3.0 6:4.0 7:10.0 8:7.0 9:1.0 10:1.0 
1.0 1:1352663.0 2:5.0 3:4.0 4:6.0 5:8.0 6:4.0 7:1.0 8:8.0 9:10.0 10:1.0 
1.0 1:188336.0 2:5.0 3:3.0 4:2.0 5:8.0 6:5.0 7:10.0 8:8.0 9:1.0 10:2.0 
1.0 1:352431.0 2:10.0 3:5.0 4:10.0 5:3.0 6:5.0 7:8.0 8:7.0 9:8.0 10:3.0 
1.0 1:557583.0 2:5.0 3:10.0 4:10.0 5:10.0 6:10.0 7:10.0 8:10.0 9:1.0 10:1.0 
1.0 1:736150.0 2:10.0 3:4.0 4:3.0 5:10.0 6:3.0 7:10.0 8:7.0 9:1.0 10:2.0 
1.0 1:803531.0 2:5.0 3:10.0 4:10.0 5:10.0 6:5.0 7:2.0 8:8.0 9:5.0 10:1.0 
1.0 1:822829.0 2:8.0 3:10.0 4:10.0 5:10.0 6:6.0 7:10.0 8:10.0 9:10.0 10:10.0 
1.0 1:1190386.0 2:4.0 3:6.0 4:6.0 5:5.0 6:7.0 7:6.0 8:7.0 9:7.0 10:3.0 
1.0 1:1253955.0 2:8.0 3:7.0 4:4.0 5:4.0 6:5.0 7:3.0 8:5.0 9:10.0 10:1.0 
1.0 1:1268952.0 2:10.0 3:10.0 4:7.0 5:8.0 6:7.0 7:1.0 8:10.0 9:10.0 10:3.0 
1.0 1:1315807.0 2:5.0 3:10.0 4:10.0 5:10.0 6:10.0 7:2.0 8:10.0 9:10.0 10:10.0 
1.0 1:1334015.0 2:7.0 3:8.0 4:8.0 5:7.0 6:3.0 7:10.0 8:7.0 9:2.0 10:3.0 
1.0 1:1350319.0 2:5.0 3:7.0 4:4.0 5:1.0 6:6.0 7:1.0 8:7.0 9:10.0 10:3.0 
1.0 1:1350423.0 2:5.0 3:10.0 4:10.0 5:8.0 6:5.0 7:5.0 8:7.0 9:10.0 10:1.0 
1.0 1:1352848.0 2:3.0 3:10.0 4:7.0 5:8.0 6:5.0 7:8.0 8:7.0 9:4.0 10:1.0 
1.0 1:1369821.0 2:10.0 3:10.0 4:10.0 5:10.0 6:5.0 7:10.0 8:10.0 9:10.0 10:7.0 
1.0 1:1371026.0 2:5.0 3:10.0 4:10.0 5:10.0 6:4.0 7:10.0 8:5.0 9:6.0 10:3.0 
1.0 1:695091.0 2:5.0 3:10.0 4:10.0 5:5.0 6:4.0 7:5.0 8:4.0 9:4.0 10:1.0 
1.0 1:888820.0 2:5.0 3:10.0 4:10.0 5:3.0 6:7.0 7:3.0 8:8.0 9:10.0 10:2.0 
1.0 1:897471.0 2:4.0 3:8.0 4:6.0 5:4.0 6:3.0 7:4.0 8:10.0 9:6.0 10:1.0 
1.0 1:897471.0 2:4.0 3:8.0 4:8.0 5:5.0 6:4.0 7:5.0 8:10.0 9:4.0 10:1.0 
-0.5747298504273721 1:1103722.0 2:1.0 3:1.0 4:1.0 5:1.0 6:2.0 7:1.0 8:2.0 9:1.0 10:2.0 
-0.4193394846384276 1:1105524.0 2:1.0 3:1.0 4:1.0 5:1.0 6:2.0 7:1.0 8:2.0 9:1.0 10:1.0 
-0.5747089388257665 1:1106095.0 2:4.0 3:1.0 4:1.0 5:3.0 6:2.0 7:1.0 8:3.0 9:1.0 10:1.0 
-0.31689984179016717 1:1115293.0 2:1.0 3:1.0 4:1.0 5:1.0 6:2.0 7:2.0 8:2.0 9:1.0 10:1.0 
-0.49247386123520415 1:1116192.0 2:1.0 3:1.0 4:1.0 5:1.0 6:2.0 7:1.0 8:2.0 9:1.0 10:1.0 
-0.5747089388257665 1:1117152.0 2:4.0 3:1.0 4:1.0 5:1.0 6:2.0 7:1.0 8:3.0 9:1.0 10:1.0 
-0.574692701598112 1:1121732.0 2:1.0 3:1.0 4:1.0 5:1.0 6:2.0 7:1.0 8:3.0 9:2.0 10:1.0 
-0.574692701598112 1:1121919.0 2:5.0 3:1.0 4:3.0 5:1.0 6:2.0 7:1.0 8:2.0 9:1.0 10:1.0 
-0.5744812129370123 1:1124651.0 2:1.0 3:3.0 4:3.0 5:2.0 6:2.0 7:1.0 8:7.0 9:2.0 10:1.0 
-0.5745762358802239 1:1131294.0 2:1.0 3:1.0 4:2.0 5:1.0 6:2.0 7:2.0 8:4.0 9:2.0 10:1.0 
-0.5745762358802239 1:1132347.0 2:1.0 3:1.0 4:4.0 5:1.0 6:2.0 7:1.0 8:2.0 9:1.0 10:1.0 
-0.5745729693828021 1:1133041.0 2:5.0 3:3.0 4:1.0 5:2.0 6:2.0 7:1.0 8:2.0 9:1.0 10:1.0 
-0.5745729693828021 1:1133136.0 2:3.0 3:1.0 4:1.0 5:1.0 6:2.0 7:3.0 8:3.0 9:1.0 10:1.0 
-0.5745672398858194 1:1136142.0 2:2.0 3:1.0 4:1.0 5:1.0 6:3.0 7:1.0 8:2.0 9:1.0 10:1.0 
-0.5745580702915124 1:1137156.0 2:2.0 3:2.0 4:2.0 5:1.0 6:1.0 7:1.0 8:7.0 9:1.0 10:1.0 
-0.3446150730758262 1:1143978.0 2:4.0 3:1.0 4:1.0 5:2.0 6:2.0 7:1.0 8:2.0 9:1.0 10:1.0 
-0.343036511088031 1:1143978.0 2:5.0 3:2.0 4:1.0 5:1.0 6:2.0 7:1.0 8:3.0 9:1.0 10:1.0 
-0.5745580702915124 1:1147044.0 2:3.0 3:1.0 4:1.0 5:1.0 6:2.0 7:2.0 8:7.0 9:1.0 10:1.0 
-0.5744840854669359 1:1152331.0 2:4.0 3:1.0 4:1.0 5:1.0 6:2.0 7:1.0 8:3.0 9:1.0 10:1.0 
-0.5743911368012394 1:1155546.0 2:2.0 3:1.0 4:1.0 5:2.0 6:3.0 7:1.0 8:2.0 9:1.0 10:1.0 
-0.5743888176041765 1:1156272.0 2:1.0 3:1.0 4:1.0 5:1.0 6:2.0 7:1.0 8:3.0 9:1.0 10:1.0 
-0.5743888176041765 1:1156948.0 2:3.0 3:1.0 4:1.0 5:2.0 6:2.0 7:1.0 8:1.0 9:1.0 10:1.0 
-0.5743867908791908 1:1157734.0 2:4.0 3:1.0 4:1.0 5:1.0 6:2.0 7:1.0 8:3.0 9:1.0 10:1.0 
-0.31691082999655396 1:1158247.0 2:1.0 3:1.0 4:1.0 5:1.0 6:2.0 7:1.0 8:2.0 9:1.0 10:1.0 
-0.5743867908791908 1:1160476.0 2:2.0 3:1.0 4:1.0 5:1.0 6:2.0 7:1.0 8:3.0 9:1.0 10:1.0 
-0.5743747314667761 1:1164066.0 2:1.0 3:1.0 4:1.0 5:1.0 6:2.0 7:1.0 8:3.0 9:1.0 10:1.0 
-0.5743747314667761 1:1165297.0 2:2.0 3:1.0 4:1.0 5:2.0 6:2.0 7:1.0 8:1.0 9:1.0 10:1.0 
-0.5743747314667761 1:1165790.0 2:5.0 3:1.0 4:1.0 5:1.0 6:2.0 7:1.0 8:3.0 9:1.0 10:1.0 
-0.5742798356669052 1:1167471.0 2:4.0 3:1.0 4:2.0 5:1.0 6:2.0 7:1.0 8:3.0 9:1.0 10:1.0 
-0.5742783468956196 1:1171710.0 2:1.0 3:1.0 4:1.0 5:1.0 6:2.0 7:1.0 8:2.0 9:3.0 10:1.0 
-0.5742778833703942 1:1171795.0 2:1.0 3:3.0 4:1.0 5:2.0 6:2.0 7:2.0 8:5.0 9:3.0 10:2.0 
-0.5742767326970564 1:1173235.0 2:3.0 3:3.0 4:2.0 5:1.0 6:2.0 7:3.0 8:3.0 9:1.0 10:1.0 
-0.5737902743008877 1:1173347.0 2:1.0 3:1.0 4:1.0 5:1.0 6:2.0 7:5.0 8:1.0 9:1.0 10:1.0 
-0.5738064801318923 1:1173347.0 2:8.0 3:3.0 4:3.0 5:1.0 6:2.0 7:2.0 8:3.0 9:2.0 10:1.0 
-0.5739177204669706 1:1173514.0 2:1.0 3:1.0 4:1.0 5:1.0 6:4.0 7:3.0 8:1.0 9:1.0 10:1.0 
-0.5742767326970564 1:1173681.0 2:3.0 3:2.0 4:1.0 5:1.0 6:2.0 7:2.0 8:3.0 9:1.0 10:1.0 
-0.4511538831475982 1:1174057.0 2:1.0 3:1.0 4:2.0 5:2.0 6:2.0 7:1.0 8:3.0 9:1.0 10:1.0 
-0.4511378142575061 1:1174057.0 2:4.0 3:2.0 4:1.0 5:1.0 6:2.0 7:2.0 8:3.0 9:1.0 10:1.0 
-0.5742605522774187 1:1176406.0 2:1.0 3:1.0 4:1.0 5:1.0 6:2.0 7:1.0 8:2.0 9:1.0 10:1.0 
-0.5742573783700566 1:1177027.0 2:3.0 3:1.0 4:1.0 5:1.0 6:2.0 7:1.0 8:3.0 9:1.0 10:1.0 
-0.574254095510701 1:1177512.0 2:1.0 3:1.0 4:1.0 5:1.0 6:10.0 7:1.0 8:1.0 9:1.0 10:1.0 
-0.574254095510701 1:1178580.0 2:5.0 3:1.0 4:3.0 5:1.0 6:2.0 7:1.0 8:2.0 9:1.0 10:1.0 
-0.5741252457236792 1:1179818.0 2:2.0 3:1.0 4:1.0 5:1.0 6:2.0 7:1.0 8:3.0 9:1.0 10:1.0 
-0.5741143025626092 1:1180523.0 2:3.0 3:1.0 4:1.0 5:1.0 6:2.0 7:1.0 8:2.0 9:2.0 10:1.0 
-0.5740871729751602 1:1180831.0 2:3.0 3:1.0 4:1.0 5:1.0 6:3.0 7:1.0 8:2.0 9:1.0 10:1.0 
-0.5740871729751602 1:1181356.0 2:5.0 3:1.0 4:1.0 5:1.0 6:2.0 7:2.0 8:3.0 9:3.0 10:1.0 
-0.02961157771256156 1:1182404.0 2:4.0 3:1.0 4:1.0 5:1.0 6:2.0 7:1.0 8:2.0 9:1.0 10:1.0 
-0.5573850265894522 1:1182410.0 2:3.0 3:1.0 4:1.0 5:1.0 6:2.0 7:1.0 8:1.0 9:1.0 10:1.0 
-0.5739866089713452 1:1183240.0 2:4.0 3:1.0 4:2.0 5:1.0 6:2.0 7:1.0 8:2.0 9:1.0 10:1.0 
-0.5737514512104467 1:1183516.0 2:3.0 3:1.0 4:1.0 5:1.0 6:2.0 7:1.0 8:1.0 9:1.0 10:1.0 
-0.5737514512104467 1:1183911.0 2:2.0 3:1.0 4:1.0 5:1.0 6:2.0 7:1.0 8:1.0 9:1.0 10:1.0 
-0.5737514512104467 1:1184184.0 2:1.0 3:1.0 4:1.0 5:1.0 6:2.0 7:5.0 8:1.0 9:1.0 10:1.0 
-0.5741054516337564 1:1184241.0 2:2.0 3:1.0 4:1.0 5:1.0 6:2.0 7:1.0 8:2.0 9:1.0 10:1.0 
-0.5748001864618084 1:1185610.0 2:1.0 3:1.0 4:1.0 5:1.0 6:3.0 7:2.0 8:2.0 9:1.0 10:1.0 
-0.5741390050079899 1:1187457.0 2:3.0 3:1.0 4:1.0 5:3.0 6:8.0 7:1.0 8:5.0 9:8.0 10:1.0 
-0.5740012426429808 1:1188472.0 2:1.0 3:1.0 4:1.0 5:1.0 6:1.0 7:1.0 8:3.0 9:1.0 10:1.0 
-0.5743806594699522 1:1190394.0 2:4.0 3:1.0 4:1.0 5:1.0 6:2.0 7:3.0 8:1.0 9:1.0 10:1.0 
-0.5739990601454461 1:1190485.0 2:1.0 3:1.0 4:1.0 5:1.0 6:2.0 7:1.0 8:1.0 9:1.0 10:1.0 
-0.5741532017839969 1:1193091.0 2:1.0 3:2.0 4:2.0 5:1.0 6:2.0 7:1.0 8:2.0 9:1.0 10:1.0 
-0.5747089388257665 1:1193210.0 2:2.0 3:1.0 4:1.0 5:1.0 6:2.0 7:1.0 8:3.0 9:1.0 10:1.0 
-0.574692701598112 1:1197080.0 2:4.0 3:1.0 4:1.0 5:1.0 6:2.0 7:1.0 8:3.0 9:2.0 10:1.0 
-0.5745421073537907 1:1197270.0 2:3.0 3:1.0 4:1.0 5:1.0 6:2.0 7:1.0 8:3.0 9:1.0 10:1.0 
-0.5743911368012394 1:1197440.0 2:1.0 3:1.0 4:1.0 5:2.0 6:1.0 7:3.0 8:1.0 9:1.0 10:7.0 
-0.5743911368012394 1:1197979.0 2:4.0 3:1.0 4:1.0 5:1.0 6:2.0 7:2.0 8:3.0 9:2.0 10:1.0 
-0.5743747314667761 1:1199219.0 2:1.0 3:1.0 4:1.0 5:2.0 6:1.0 7:1.0 8:1.0 9:1.0 10:1.0 
-0.5743747314667761 1:1199731.0 2:3.0 3:1.0 4:1.0 5:1.0 6:2.0 7:1.0 8:1.0 9:1.0 10:1.0 
-0.5743747314667761 1:1199983.0 2:1.0 3:1.0 4:1.0 5:1.0 6:2.0 7:1.0 8:3.0 9:1.0 10:1.0 
-0.5742783282936801 1:1200772.0 2:1.0 3:1.0 4:1.0 5:1.0 6:2.0 7:1.0 8:2.0 9:1.0 10:1.0 
-0.5742767326970564 1:1201834.0 2:2.0 3:1.0 4:1.0 5:1.0 6:2.0 7:1.0 8:3.0 9:1.0 10:1.0 
-0.5742573783700566 1:1202125.0 2:4.0 3:1.0 4:1.0 5:1.0 6:2.0 7:1.0 8:3.0 9:1.0 10:1.0 
-0.574254095510701 1:1203096.0 2:1.0 3:1.0 4:1.0 5:1.0 6:1.0 7:1.0 8:3.0 9:1.0 10:1.0 
-0.5742931261848734 1:1204242.0 2:1.0 3:1.0 4:1.0 5:1.0 6:2.0 7:1.0 8:1.0 9:1.0 10:1.0 
-0.5745355208777916 1:1204898.0 2:6.0 3:1.0 4:1.0 5:1.0 6:2.0 7:1.0 8:3.0 9:1.0 10:1.0 
-0.5738434853920076 1:1206089.0 2:2.0 3:1.0 4:1.0 5:1.0 6:1.0 7:1.0 8:3.0 9:1.0 10:1.0 
-0.5746476492046857 1:1208301.0 2:1.0 3:2.0 4:3.0 5:1.0 6:2.0 7:1.0 8:3.0 9:1.0 10:1.0 
-0.5741157323016284 1:1212232.0 2:5.0 3:1.0 4:1.0 5:1.0 6:2.0 7:1.0 8:2.0 9:1.0 10:1.0 
-0.5746498132504438 1:1212251.0 2:1.0 3:1.0 4:1.0 5:1.0 6:2.0 7:1.0 8:3.0 9:1.0 10:1.0 
-0.3019483119929713 1:1212422.0 2:3.0 3:1.0 4:1.0 5:1.0 6:2.0 7:1.0 8:3.0 9:1.0 10:1.0 
-0.3006293509193373 1:1212422.0 2:4.0 3:1.0 4:1.0 5:1.0 6:2.0 7:1.0 8:3.0 9:1.0 10:1.0 
-0.5744731034011151 1:1213375.0 2:8.0 3:4.0 4:4.0 5:5.0 6:4.0 7:7.0 8:7.0 9:8.0 10:2.0 
-0.5743020229479731 1:1213383.0 2:5.0 3:1.0 4:1.0 5:4.0 6:2.0 7:1.0 8:3.0 9:1.0 10:1.0 
-0.5743451835775304 1:1214092.0 2:1.0 3:1.0 4:1.0 5:1.0 6:2.0 7:1.0 8:1.0 9:1.0 10:1.0 
-0.5743451834988866 1:1214556.0 2:3.0 3:1.0 4:1.0 5:1.0 6:2.0 7:1.0 8:2.0 9:1.0 10:1.0 
-0.574365619569431 1:1216947.0 2:1.0 3:1.0 4:1.0 5:1.0 6:2.0 7:1.0 8:3.0 9:1.0 10:1.0 
-0.5740388985984702 1:1217051.0 2:5.0 3:1.0 4:1.0 5:1.0 6:2.0 7:1.0 8:3.0 9:1.0 10:1.0 
-0.5740784906874442 1:1217264.0 2:1.0 3:1.0 4:1.0 5:1.0 6:2.0 7:1.0 8:3.0 9:1.0 10:1.0 
-0.5739179242002572 1:1218860.0 2:1.0 3:1.0 4:1.0 5:1.0 6:1.0 7:1.0 8:3.0 9:1.0 10:1.0 
-0.5740316359132464 1:1219406.0 2:5.0 3:1.0 4:1.0 5:1.0 6:1.0 7:1.0 8:3.0 9:1.0 10:1.0 
-0.5740316359132464 1:1220330.0 2:1.0 3:1.0 4:1.0 5:1.0 6:2.0 7:1.0 8:3.0 9:1.0 10:1.0 
-0.5741625276621443 1:1223282.0 2:1.0 3:1.0 4:1.0 5:1.0 6:2.0 7:1.0 8:2.0 9:1.0 10:1.0 
-0.5737524245618555 1:1223426.0 2:1.0 3:1.0 4:1.0 5:1.0 6:2.0 7:1.0 8:3.0 9:1.0 10:1.0 
-0.5737524245622481 1:1223967.0 2:6.0 3:1.0 4:3.0 5:1.0 6:2.0 7:1.0 8:3.0 9:1.0 10:1.0 
-0.5744217424876128 1:1224329.0 2:1.0 3:1.0 4:1.0 5:2.0 6:2.0 7:1.0 8:3.0 9:1.0 10:1.0 
-0.5747284725011284 1:1227244.0 2:1.0 3:1.0 4:1.0 5:1.0 6:2.0 7:1.0 8:2.0 9:1.0 10:1.0 
-0.5747284725011284 1:1228311.0 2:1.0 3:1.0 4:1.0 5:1.0 6:1.0 7:1.0 8:3.0 9:1.0 10:1.0 
-0.5740233324556188 1:1231706.0 2:8.0 3:4.0 4:6.0 5:3.0 6:3.0 7:1.0 8:4.0 9:3.0 10:1.0 
-0.5739911752752958 1:1236043.0 2:3.0 3:3.0 4:2.0 5:1.0 6:3.0 7:1.0 8:3.0 9:6.0 10:1.0 
-0.5739699843155744 1:1270479.0 2:5.0 3:1.0 4:3.0 5:3.0 6:2.0 7:2.0 8:2.0 9:3.0 10:1.0 
-0.2448151888247182 1:1276091.0 2:3.0 3:1.0 4:1.0 5:3.0 6:1.0 7:1.0 8:3.0 9:1.0 10:1.0 
-0.5739699843155744 1:1277018.0 2:2.0 3:1.0 4:1.0 5:1.0 6:2.0 7:1.0 8:3.0 9:1.0 10:1.0 
-0.5739699843155744 1:128059.0 2:1.0 3:1.0 4:1.0 5:1.0 6:2.0 7:5.0 8:5.0 9:1.0 10:1.0 
-0.5739356151908441 1:1285531.0 2:1.0 3:1.0 4:1.0 5:1.0 6:2.0 7:1.0 8:3.0 9:1.0 10:1.0 
-0.5739221188502069 1:1287775.0 2:5.0 3:1.0 4:1.0 5:2.0 6:2.0 7:2.0 8:3.0 9:1.0 10:1.0 
-0.5743053967813794 1:167528.0 2:4.0 3:1.0 4:1.0 5:1.0 6:2.0 7:1.0 8:3.0 9:6.0 10:1.0 
-0.574473104828975 1:183913.0 2:1.0 3:2.0 4:2.0 5:1.0 6:2.0 7:1.0 8:1.0 9:1.0 10:1.0 
-0.574473104789639 1:1017023.0 2:6.0 3:3.0 4:3.0 5:5.0 6:3.0 7:10.0 8:3.0 9:5.0 10:3.0 
-0.5743439391208173 1:1198641.0 2:3.0 3:1.0 4:1.0 5:1.0 6:2.0 7:1.0 8:3.0 9:1.0 10:1.0 
-0.5745421073537907 1:242970.0 2:5.0 3:7.0 4:7.0 5:1.0 6:5.0 7:8.0 8:3.0 9:4.0 10:1.0 
-0.48338755290196633 1:1182404.0 2:5.0 3:1.0 4:4.0 5:1.0 6:2.0 7:1.0 8:3.0 9:2.0 10:1.0 
-0.48509899391806777 1:385103.0 2:1.0 3:1.0 4:1.0 5:1.0 6:2.0 7:1.0 8:3.0 9:1.0 10:1.0 
-0.505707870011454 1:411453.0 2:5.0 3:1.0 4:1.0 5:1.0 6:2.0 7:1.0 8:3.0 9:1.0 10:1.0 
-0.5745421073537907 1:431495.0 2:3.0 3:1.0 4:1.0 5:1.0 6:2.0 7:1.0 8:3.0 9:2.0 10:1.0 
-0.574535627491995 1:434518.0 2:3.0 3:1.0 4:1.0 5:1.0 6:2.0 7:1.0 8:2.0 9:1.0 10:1.0 
-0.5745355975976768 1:452264.0 2:1.0 3:1.0 4:1.0 5:1.0 6:2.0 7:1.0 8:2.0 9:1.0 10:1.0 
-0.5745355208777917 1:456282.0 2:1.0 3:1.0 4:1.0 5:1.0 6:2.0 7:1.0 8:3.0 9:1.0 10:1.0 
-0.5744812129370123 1:486283.0 2:3.0 3:1.0 4:1.0 5:1.0 6:2.0 7:1.0 8:3.0 9:1.0 10:1.0 
-0.5744582082387324 1:486662.0 2:2.0 3:1.0 4:1.0 5:2.0 6:2.0 7:1.0 8:3.0 9:1.0 10:1.0 
-0.5744405016734373 1:535331.0 2:3.0 3:1.0 4:1.0 5:1.0 6:3.0 7:1.0 8:2.0 9:1.0 10:1.0 
-0.3702096287394715 1:560680.0 2:1.0 3:1.0 4:1.0 5:1.0 6:2.0 7:1.0 8:1.0 9:1.0 10:1.0 
-0.5743806594322008 1:561477.0 2:1.0 3:1.0 4:1.0 5:1.0 6:2.0 7:1.0 8:3.0 9:1.0 10:1.0 
-0.5743806594322008 1:616240.0 2:5.0 3:3.0 4:4.0 5:3.0 6:4.0 7:5.0 8:4.0 9:7.0 10:1.0 
-0.5743747314667761 1:625201.0 2:8.0 3:2.0 4:1.0 5:1.0 6:5.0 7:1.0 8:1.0 9:1.0 10:1.0 
-0.5743747314667761 1:636130.0 2:1.0 3:1.0 4:1.0 5:1.0 6:2.0 7:1.0 8:3.0 9:1.0 10:1.0 
-0.5743747314667761 1:646904.0 2:1.0 3:1.0 4:1.0 5:1.0 6:2.0 7:1.0 8:3.0 9:1.0 10:1.0 
-0.5742931261848734 1:666090.0 2:1.0 3:1.0 4:1.0 5:1.0 6:2.0 7:1.0 8:3.0 9:1.0 10:1.0 
-0.5742445339475977 1:666942.0 2:1.0 3:1.0 4:1.0 5:1.0 6:2.0 7:1.0 8:3.0 9:1.0 10:1.0 
-0.5742445339475977 1:673637.0 2:3.0 3:1.0 4:1.0 5:1.0 6:2.0 7:5.0 8:5.0 9:1.0 10:1.0 
-0.5742445339475977 1:684955.0 2:2.0 3:1.0 4:1.0 5:1.0 6:3.0 7:1.0 8:2.0 9:1.0 10:1.0 
-0.5742445339475977 1:688033.0 2:1.0 3:1.0 4:1.0 5:1.0 6:2.0 7:1.0 8:1.0 9:1.0 10:1.0 
-0.5743888176041765 1:693702.0 2:1.0 3:1.0 4:1.0 5:1.0 6:2.0 7:1.0 8:1.0 9:1.0 10:1.0 
-0.5745729693828021 1:718641.0 2:1.0 3:1.0 4:1.0 5:1.0 6:5.0 7:1.0 8:3.0 9:1.0 10:1.0 
-0.5742429895222207 1:721482.0 2:4.0 3:4.0 4:4.0 5:4.0 6:6.0 7:5.0 8:7.0 9:3.0 10:1.0 
-0.5740597916239436 1:733639.0 2:3.0 3:1.0 4:1.0 5:1.0 6:2.0 7:1.0 8:3.0 9:1.0 10:1.0 
-0.5737461877056067 1:740492.0 2:1.0 3:1.0 4:1.0 5:1.0 6:2.0 7:1.0 8:3.0 9:1.0 10:1.0 
-0.5747298504273721 1:743348.0 2:3.0 3:2.0 4:2.0 5:1.0 6:2.0 7:1.0 8:2.0 9:3.0 10:1.0 
-0.5739992544344579 1:756136.0 2:1.0 3:1.0 4:1.0 5:1.0 6:2.0 7:1.0 8:2.0 9:1.0 10:1.0 
-0.5741054516337564 1:764974.0 2:5.0 3:1.0 4:1.0 5:1.0 6:2.0 7:1.0 8:3.0 9:1.0 10:2.0 
-0.5738683676705993 1:770066.0 2:5.0 3:2.0 4:2.0 5:2.0 6:2.0 7:1.0 8:2.0 9:2.0 10:1.0 
-0.5740050273016095 1:792744.0 2:1.0 3:1.0 4:1.0 5:1.0 6:2.0 7:1.0 8:1.0 9:1.0 10:1.0 
-0.40808848559486166 1:798429.0 2:1.0 3:1.0 4:1.0 5:1.0 6:2.0 7:1.0 8:3.0 9:1.0 10:1.0 
-0.5740483636036515 1:704097.0 2:1.0 3:1.0 4:1.0 5:1.0 6:1.0 7:1.0 8:2.0 9:1.0 10:1.0 
-0.5740483636036515 1:810104.0 2:1.0 3:1.0 4:1.0 5:1.0 6:2.0 7:1.0 8:3.0 9:1.0 10:1.0 
-0.5739055381624709 1:814265.0 2:2.0 3:1.0 4:1.0 5:1.0 6:2.0 7:1.0 8:1.0 9:1.0 10:1.0 
-0.5740597916239436 1:814911.0 2:1.0 3:1.0 4:1.0 5:1.0 6:2.0 7:1.0 8:1.0 9:1.0 10:1.0 
-0.5740268170161514 1:826923.0 2:1.0 3:1.0 4:1.0 5:1.0 6:2.0 7:1.0 8:1.0 9:1.0 10:1.0 
-0.5744688720220072 1:830690.0 2:5.0 3:2.0 4:2.0 5:2.0 6:3.0 7:1.0 8:1.0 9:3.0 10:1.0 
-0.5743020243942083 1:831268.0 2:1.0 3:1.0 4:1.0 5:1.0 6:1.0 7:1.0 8:1.0 9:3.0 10:1.0 
-0.5742920280329765 1:836433.0 2:5.0 3:1.0 4:1.0 5:3.0 6:2.0 7:1.0 8:1.0 9:1.0 10:1.0 
-0.5739025703869858 1:837082.0 2:2.0 3:1.0 4:1.0 5:1.0 6:2.0 7:1.0 8:3.0 9:1.0 10:1.0 
-0.5744688720220072 1:846832.0 2:3.0 3:4.0 4:5.0 5:3.0 6:7.0 7:3.0 8:4.0 9:6.0 10:1.0 
-0.5740991606690253 1:855524.0 2:1.0 3:1.0 4:1.0 5:1.0 6:2.0 7:1.0 8:2.0 9:1.0 10:1.0 
-0.5740316359132464 1:857774.0 2:4.0 3:1.0 4:1.0 5:1.0 6:3.0 7:1.0 8:2.0 9:2.0 10:1.0 
-0.5747284725011284 1:888169.0 2:3.0 3:2.0 4:2.0 5:1.0 6:4.0 7:3.0 8:2.0 9:1.0 10:1.0 
-0.5739098398064584 1:888523.0 2:4.0 3:4.0 4:4.0 5:2.0 6:2.0 7:3.0 8:2.0 9:1.0 10:1.0 
-0.5739009639436621 1:896404.0 2:2.0 3:1.0 4:1.0 5:1.0 6:2.0 7:1.0 8:3.0 9:1.0 10:1.0 
-0.5739008870075122 1:897172.0 2:2.0 3:1.0 4:1.0 5:1.0 6:2.0 7:1.0 8:2.0 9:1.0 10:1.0 
-0.5743053967813794 1:342245.0 2:1.0 3:1.0 4:3.0 5:1.0 6:2.0 7:1.0 8:1.0 9:1.0 10:1.0 
-0.574473104789639 1:428598.0 2:1.0 3:1.0 4:3.0 5:1.0 6:1.0 7:1.0 8:2.0 9:1.0 10:1.0 
-0.5745355208777916 1:492561.0 2:4.0 3:3.0 4:2.0 5:1.0 6:3.0 7:1.0 8:2.0 9:1.0 10:1.0 
-0.4313046666622723 1:493452.0 2:1.0 3:1.0 4:3.0 5:1.0 6:2.0 7:1.0 8:1.0 9:1.0 10:1.0 
-0.4306326245801291 1:493452.0 2:4.0 3:1.0 4:2.0 5:1.0 6:2.0 7:1.0 8:2.0 9:1.0 10:1.0 
-0.5744837602437136 1:521441.0 2:5.0 3:1.0 4:1.0 5:2.0 6:2.0 7:1.0 8:2.0 9:1.0 10:1.0 
-0.37131777487943307 1:560680.0 2:3.0 3:1.0 4:2.0 5:1.0 6:2.0 7:1.0 8:2.0 9:1.0 10:1.0 
-0.5744737754051189 1:636437.0 2:1.0 3:1.0 4:1.0 5:1.0 6:2.0 7:1.0 8:1.0 9:1.0 10:1.0 
-0.5743806594322008 1:640712.0 2:1.0 3:1.0 4:1.0 5:1.0 6:2.0 7:1.0 8:2.0 9:1.0 10:1.0 
-0.5743806594322008 1:654244.0 2:1.0 3:1.0 4:1.0 5:1.0 6:1.0 7:1.0 8:2.0 9:1.0 10:1.0 
-0.5742931261848734 1:657753.0 2:3.0 3:1.0 4:1.0 5:4.0 6:3.0 7:1.0 8:2.0 9:2.0 10:1.0 
-0.5742920280329765 1:685977.0 2:5.0 3:3.0 4:4.0 5:1.0 6:4.0 7:1.0 8:3.0 9:1.0 10:1.0 
-0.5742445339475977 1:805448.0 2:1.0 3:1.0 4:1.0 5:1.0 6:2.0 7:1.0 8:1.0 9:1.0 10:1.0 
-0.5742445339475977 1:1002504.0 2:3.0 3:2.0 4:2.0 5:2.0 6:2.0 7:1.0 8:3.0 9:2.0 10:1.0 
-0.5737461877056067 1:1022257.0 2:2.0 3:1.0 4:1.0 5:1.0 6:2.0 7:1.0 8:1.0 9:1.0 10:1.0 
-0.5740483636036515 1:1026122.0 2:2.0 3:1.0 4:1.0 5:1.0 6:2.0 7:1.0 8:1.0 9:1.0 10:1.0 
-0.574279917324004 1:1071084.0 2:3.0 3:3.0 4:2.0 5:2.0 6:3.0 7:1.0 8:1.0 9:2.0 10:3.0 
-0.5112871465402242 1:1114570.0 2:5.0 3:3.0 4:3.0 5:2.0 6:3.0 7:1.0 8:3.0 9:1.0 10:1.0 
-0.5113875404990257 1:1114570.0 2:2.0 3:1.0 4:1.0 5:1.0 6:2.0 7:1.0 8:2.0 9:2.0 10:1.0 
-0.5744731048879785 1:1116715.0 2:5.0 3:1.0 4:1.0 5:1.0 6:3.0 7:2.0 8:2.0 9:2.0 10:1.0 
-0.5740597916239436 1:1131411.0 2:1.0 3:1.0 4:1.0 5:2.0 6:2.0 7:1.0 8:2.0 9:1.0 10:1.0 
-0.5740597916239436 1:1156017.0 2:3.0 3:1.0 4:1.0 5:1.0 6:2.0 7:1.0 8:2.0 9:1.0 10:1.0 
-0.3145621686631854 1:1158247.0 2:1.0 3:1.0 4:1.0 5:1.0 6:1.0 7:1.0 8:1.0 9:1.0 10:1.0 
-0.5740095975152233 1:1158405.0 2:1.0 3:2.0 4:3.0 5:1.0 6:2.0 7:1.0 8:2.0 9:1.0 10:1.0 
-0.5740012426429808 1:1168278.0 2:3.0 3:1.0 4:1.0 5:1.0 6:2.0 7:1.0 8:2.0 9:1.0 10:1.0 
-0.5744737754051189 1:1176187.0 2:3.0 3:1.0 4:1.0 5:1.0 6:2.0 7:1.0 8:3.0 9:1.0 10:1.0 
-0.5744812129370123 1:1196263.0 2:4.0 3:1.0 4:1.0 5:1.0 6:2.0 7:1.0 8:1.0 9:1.0 10:1.0 
-0.5745729693828021 1:1196475.0 2:3.0 3:2.0 4:1.0 5:1.0 6:2.0 7:1.0 8:2.0 9:2.0 10:1.0 
-0.5745672398858194 1:1206314.0 2:1.0 3:2.0 4:3.0 5:1.0 6:2.0 7:1.0 8:1.0 9:1.0 10:1.0 
-0.5742445339475977 1:1213784.0 2:3.0 3:1.0 4:1.0 5:1.0 6:2.0 7:1.0 8:1.0 9:1.0 10:1.0 
-0.5742445339475977 1:1223003.0 2:5.0 3:3.0 4:3.0 5:1.0 6:2.0 7:1.0 8:2.0 9:1.0 10:1.0 
-0.5740003563479082 1:1223306.0 2:3.0 3:1.0 4:1.0 5:1.0 6:2.0 7:4.0 8:1.0 9:1.0 10:1.0 
-0.5742445339475977 1:1223543.0 2:1.0 3:2.0 4:1.0 5:3.0 6:2.0 7:1.0 8:1.0 9:2.0 10:1.0 
-0.5742268216908681 1:1229929.0 2:1.0 3:1.0 4:1.0 5:1.0 6:2.0 7:1.0 8:2.0 9:1.0 10:1.0 
-0.5745816929904635 1:1231853.0 2:4.0 3:2.0 4:2.0 5:1.0 6:2.0 7:1.0 8:2.0 9:1.0 10:1.0 
-0.5741625276621443 1:1234554.0 2:1.0 3:1.0 4:1.0 5:1.0 6:2.0 7:1.0 8:2.0 9:1.0 10:1.0 
-0.5740012426429808 1:1236837.0 2:2.0 3:3.0 4:2.0 5:2.0 6:2.0 7:2.0 8:3.0 9:1.0 10:1.0 
-0.5740027726003922 1:1237674.0 2:3.0 3:1.0 4:2.0 5:1.0 6:2.0 7:1.0 8:2.0 9:1.0 10:1.0 
-0.5740095975152233 1:1238021.0 2:1.0 3:1.0 4:1.0 5:1.0 6:2.0 7:1.0 8:2.0 9:1.0 10:1.0 
-0.5740316359132464 1:1238915.0 2:5.0 3:1.0 4:2.0 5:1.0 6:2.0 7:1.0 8:3.0 9:1.0 10:1.0 
-0.5738683676705993 1:1239232.0 2:3.0 3:3.0 4:2.0 5:6.0 6:3.0 7:3.0 8:3.0 9:5.0 10:1.0 
-0.5739055381624709 1:1239967.0 2:1.0 3:1.0 4:1.0 5:1.0 6:2.0 7:1.0 8:2.0 9:1.0 10:1.0 
-0.5740303193402913 1:1240337.0 2:5.0 3:2.0 4:2.0 5:2.0 6:2.0 7:2.0 8:3.0 9:2.0 10:2.0 
-0.5739931362685753 1:1253505.0 2:2.0 3:3.0 4:1.0 5:1.0 6:5.0 7:1.0 8:1.0 9:1.0 10:1.0 
-0.5746476374490102 1:1255384.0 2:3.0 3:2.0 4:2.0 5:3.0 6:2.0 7:3.0 8:3.0 9:1.0 10:1.0 
-0.5746476492046857 1:1257648.0 2:4.0 3:3.0 4:3.0 5:1.0 6:2.0 7:1.0 8:3.0 9:3.0 10:1.0 
-0.5745013568052357 1:1257815.0 2:5.0 3:1.0 4:3.0 5:1.0 6:2.0 7:1.0 8:2.0 9:1.0 10:1.0 
-0.5744731048407418 1:1257938.0 2:3.0 3:1.0 4:1.0 5:1.0 6:2.0 7:1.0 8:1.0 9:1.0 10:1.0 
-0.5744731048879785 1:1258556.0 2:5.0 3:3.0 4:6.0 5:1.0 6:2.0 7:1.0 8:1.0 9:1.0 10:1.0 
-0.5744731048879785 1:1272039.0 2:1.0 3:1.0 4:1.0 5:1.0 6:2.0 7:1.0 8:2.0 9:1.0 10:1.0 
-0.12697006630133797 1:1276091.0 2:2.0 3:1.0 4:1.0 5:1.0 6:2.0 7:1.0 8:2.0 9:1.0 10:1.0 
-0.42069610328168255 1:1276091.0 2:1.0 3:3.0 4:1.0 5:1.0 6:2.0 7:1.0 8:2.0 9:2.0 10:1.0 
-0.33909599549427016 1:1276091.0 2:5.0 3:1.0 4:1.0 5:3.0 6:4.0 7:1.0 8:3.0 9:2.0 10:1.0 
-0.5739911752752958 1:1277629.0 2:5.0 3:1.0 4:1.0 5:1.0 6:2.0 7:1.0 8:2.0 9:2.0 10:1.0 
-0.5739053249049708 1:1293439.0 2:3.0 3:2.0 4:2.0 5:3.0 6:2.0 7:1.0 8:1.0 9:1.0 10:1.0 
-0.5745354147933213 1:1293439.0 2:6.0 3:9.0 4:7.0 5:5.0 6:5.0 7:8.0 8:4.0 9:2.0 10:1.0 
-0.5739911752752958 1:527337.0 2:4.0 3:1.0 4:1.0 5:1.0 6:2.0 7:1.0 8:1.0 9:1.0 10:1.0 
-0.5740050273016095 1:558538.0 2:4.0 3:1.0 4:3.0 5:3.0 6:2.0 7:1.0 8:1.0 9:1.0 10:1.0 
-0.5740033897851424 1:566509.0 2:5.0 3:1.0 4:1.0 5:1.0 6:2.0 7:1.0 8:1.0 9:1.0 10:1.0 
-0.5743136848890077 1:677910.0 2:5.0 3:2.0 4:2.0 5:4.0 6:2.0 7:4.0 8:1.0 9:1.0 10:1.0 
-0.35825827072173755 1:734111.0 2:1.0 3:1.0 4:1.0 5:3.0 6:2.0 7:3.0 8:1.0 9:1.0 10:1.0 
-0.35670443247871964 1:734111.0 2:1.0 3:1.0 4:1.0 5:1.0 6:2.0 7:2.0 8:1.0 9:1.0 10:1.0 
-0.5739055381624709 1:780555.0 2:5.0 3:1.0 4:1.0 5:6.0 6:3.0 7:1.0 8:2.0 9:1.0 10:1.0 
-0.5741054516337564 1:827627.0 2:2.0 3:1.0 4:1.0 5:1.0 6:2.0 7:1.0 8:1.0 9:1.0 10:1.0 
-0.5740597916239436 1:1049837.0 2:1.0 3:1.0 4:1.0 5:1.0 6:2.0 7:1.0 8:1.0 9:1.0 10:1.0 
-0.5744217424876128 1:1058849.0 2:5.0 3:1.0 4:1.0 5:1.0 6:2.0 7:1.0 8:1.0 9:1.0 10:1.0 
-0.43485289695549734 1:1182404.0 2:1.0 3:1.0 4:1.0 5:1.0 6:1.0 7:1.0 8:1.0 9:1.0 10:1.0 
-0.5743289287405318 1:1201870.0 2:4.0 3:1.0 4:1.0 5:3.0 6:1.0 7:1.0 8:2.0 9:1.0 10:1.0 
-0.5745511659801281 1:1202253.0 2:5.0 3:1.0 4:1.0 5:1.0 6:2.0 7:1.0 8:1.0 9:1.0 10:1.0 
-0.5745355975976768 1:1227081.0 2:3.0 3:1.0 4:1.0 5:3.0 6:2.0 7:1.0 8:1.0 9:1.0 10:1.0 
-0.5745096457085606 1:1238410.0 2:2.0 3:3.0 4:1.0 5:1.0 6:3.0 7:1.0 8:1.0 9:1.0 10:1.0 
-0.5740050273016095 1:1266124.0 2:5.0 3:1.0 4:2.0 5:1.0 6:2.0 7:1.0 8:1.0 9:1.0 10:1.0 
-0.573879561510769 1:1267898.0 2:5.0 3:1.0 4:3.0 5:1.0 6:2.0 7:1.0 8:1.0 9:1.0 10:1.0 
-0.5739385584013031 1:1268313.0 2:5.0 3:1.0 4:1.0 5:3.0 6:2.0 7:1.0 8:1.0 9:1.0 10:1.0 
-0.5743136848890077 1:1268804.0 2:3.0 3:1.0 4:1.0 5:1.0 6:2.0 7:5.0 8:1.0 9:1.0 10:1.0 
-0.3607687731304343 1:1276091.0 2:6.0 3:1.0 4:1.0 5:3.0 6:2.0 7:1.0 8:1.0 9:1.0 10:1.0 
-0.573928998925221 1:1280258.0 2:4.0 3:1.0 4:1.0 5:1.0 6:2.0 7:1.0 8:1.0 9:2.0 10:1.0 
-0.5739177204668443 1:1293966.0 2:4.0 3:1.0 4:1.0 5:1.0 6:2.0 7:1.0 8:1.0 9:1.0 10:1.0 
-0.4199861709442611 1:1105524.0 2:4.0 3:1.0 4:1.0 5:1.0 6:2.0 7:1.0 8:1.0 9:1.0 10:1.0 
-0.574473104789639 1:1181685.0 2:1.0 3:1.0 4:2.0 5:1.0 6:2.0 7:1.0 8:2.0 9:1.0 10:1.0 
-0.5740871729751602 1:1211594.0 2:3.0 3:1.0 4:1.0 5:1.0 6:1.0 7:1.0 8:2.0 9:1.0 10:1.0 
-0.5445200346162897 1:1238777.0 2:6.0 3:1.0 4:1.0 5:3.0 6:2.0 7:1.0 8:1.0 9:1.0 10:1.0 
-0.5737514512104467 1:1257608.0 2:6.0 3:1.0 4:1.0 5:1.0 6:1.0 7:1.0 8:1.0 9:1.0 10:1.0 
-0.5740316359132464 1:1269574.0 2:4.0 3:1.0 4:1.0 5:1.0 6:2.0 7:1.0 8:1.0 9:1.0 10:1.0 
-0.5743806594322008 1:1277145.0 2:5.0 3:1.0 4:1.0 5:1.0 6:2.0 7:1.0 8:1.0 9:1.0 10:1.0 
-0.5743747314667761 1:1287282.0 2:3.0 3:1.0 4:1.0 5:1.0 6:2.0 7:1.0 8:1.0 9:1.0 10:1.0 
-0.5742445339475977 1:1296025.0 2:4.0 3:1.0 4:2.0 5:1.0 6:2.0 7:1.0 8:1.0 9:1.0 10:1.0 
-0.5745816929904635 1:1296263.0 2:4.0 3:1.0 4:1.0 5:1.0 6:2.0 7:1.0 8:1.0 9:1.0 10:1.0 
-0.5741617624639903 1:1296593.0 2:5.0 3:2.0 4:1.0 5:1.0 6:2.0 7:1.0 8:1.0 9:1.0 10:1.0 
-0.5743136848890077 1:1301945.0 2:5.0 3:1.0 4:1.0 5:1.0 6:1.0 7:1.0 8:1.0 9:1.0 10:1.0 
-0.574058438952304 1:1302428.0 2:5.0 3:3.0 4:2.0 5:4.0 6:2.0 7:1.0 8:1.0 9:1.0 10:1.0 
-0.5740393667214032 1:787451.0 2:5.0 3:1.0 4:2.0 5:1.0 6:2.0 7:1.0 8:1.0 9:1.0 10:1.0 
-0.5744405016734373 1:1002025.0 2:1.0 3:1.0 4:1.0 5:3.0 6:1.0 7:3.0 8:1.0 9:1.0 10:1.0 
-0.5744647238376013 1:1070522.0 2:3.0 3:1.0 4:1.0 5:1.0 6:1.0 7:1.0 8:2.0 9:1.0 10:1.0 
-0.3145691563600298 1:1115293.0 2:1.0 3:1.0 4:1.0 5:1.0 6:2.0 7:1.0 8:1.0 9:1.0 10:1.0 
-0.5743451834988866 1:1133991.0 2:4.0 3:1.0 4:1.0 5:1.0 6:1.0 7:1.0 8:2.0 9:1.0 10:1.0 
-0.5746476492046857 1:1155967.0 2:5.0 3:1.0 4:2.0 5:10.0 6:4.0 7:5.0 8:2.0 9:1.0 10:1.0 
-0.573928998925221 1:1170945.0 2:3.0 3:1.0 4:1.0 5:1.0 6:1.0 7:1.0 8:2.0 9:1.0 10:1.0 
-0.5739177204668443 1:1181567.0 2:1.0 3:1.0 4:1.0 5:1.0 6:1.0 7:1.0 8:1.0 9:1.0 10:1.0 
-0.2953047965930778 1:1182404.0 2:4.0 3:2.0 4:1.0 5:1.0 6:2.0 7:1.0 8:1.0 9:1.0 10:1.0 
-0.5740497972101016 1:1204558.0 2:4.0 3:1.0 4:1.0 5:1.0 6:2.0 7:1.0 8:2.0 9:1.0 10:1.0 
-0.5739699843155744 1:1217952.0 2:4.0 3:1.0 4:1.0 5:1.0 6:2.0 7:1.0 8:2.0 9:1.0 10:1.0 
-0.5739911752752958 1:1224565.0 2:6.0 3:1.0 4:1.0 5:1.0 6:2.0 7:1.0 8:3.0 9:1.0 10:1.0 
-0.5744731048938619 1:1238186.0 2:4.0 3:1.0 4:1.0 5:1.0 6:2.0 7:1.0 8:2.0 9:1.0 10:1.0 
-0.57434234981859 1:1253917.0 2:4.0 3:1.0 4:1.0 5:2.0 6:2.0 7:1.0 8:2.0 9:1.0 10:1.0 
-0.5744688720220072 1:1265899.0 2:4.0 3:1.0 4:1.0 5:1.0 6:2.0 7:1.0 8:3.0 9:1.0 10:1.0 
-0.5743451834988866 1:1268766.0 2:1.0 3:1.0 4:1.0 5:1.0 6:2.0 7:1.0 8:1.0 9:1.0 10:1.0 
-0.5743451835775304 1:1277268.0 2:3.0 3:3.0 4:1.0 5:1.0 6:2.0 7:1.0 8:1.0 9:1.0 10:1.0 
-0.5743136848890077 1:1295508.0 2:1.0 3:1.0 4:1.0 5:1.0 6:2.0 7:4.0 8:1.0 9:1.0 10:1.0 
-0.5743136848890077 1:1297327.0 2:5.0 3:1.0 4:1.0 5:1.0 6:2.0 7:1.0 8:1.0 9:1.0 10:1.0 
-0.5743321145927187 1:1297522.0 2:2.0 3:1.0 4:1.0 5:1.0 6:2.0 7:1.0 8:1.0 9:1.0 10:1.0 
-0.5743451834988866 1:1298360.0 2:1.0 3:1.0 4:1.0 5:1.0 6:2.0 7:1.0 8:1.0 9:1.0 10:1.0 
-0.4413363342051688 1:1299924.0 2:5.0 3:1.0 4:1.0 5:1.0 6:2.0 7:1.0 8:2.0 9:1.0 10:1.0 
-0.5743136848890077 1:1299994.0 2:5.0 3:1.0 4:1.0 5:1.0 6:2.0 7:1.0 8:1.0 9:1.0 10:1.0 
-0.574473104789639 1:1304595.0 2:3.0 3:1.0 4:1.0 5:1.0 6:1.0 7:1.0 8:2.0 9:1.0 10:1.0 
-0.3006293509193373 1:1320077.0 2:1.0 3:1.0 4:1.0 5:1.0 6:1.0 7:1.0 8:1.0 9:1.0 10:1.0 
-0.3019483119929713 1:1320077.0 2:1.0 3:1.0 4:1.0 5:1.0 6:1.0 7:1.0 8:2.0 9:1.0 10:1.0 
-0.5744731048879785 1:1320304.0 2:3.0 3:1.0 4:2.0 5:2.0 6:2.0 7:1.0 8:1.0 9:1.0 10:1.0 
-0.5745021431306682 1:333093.0 2:1.0 3:1.0 4:1.0 5:1.0 6:3.0 7:1.0 8:1.0 9:1.0 10:1.0 
-0.5746476374490102 1:369565.0 2:4.0 3:1.0 4:1.0 5:1.0 6:3.0 7:1.0 8:1.0 9:1.0 10:1.0 
-0.5746476492046857 1:749653.0 2:3.0 3:1.0 4:1.0 5:1.0 6:2.0 7:1.0 8:2.0 9:1.0 10:1.0 
-0.3151877581641402 1:769612.0 2:3.0 3:1.0 4:1.0 5:2.0 6:2.0 7:1.0 8:1.0 9:1.0 10:1.0 
-0.3163581305993116 1:769612.0 2:4.0 3:1.0 4:1.0 5:1.0 6:2.0 7:1.0 8:1.0 9:1.0 10:1.0 
-0.4081620939676005 1:798429.0 2:4.0 3:1.0 4:1.0 5:1.0 6:2.0 7:1.0 8:3.0 9:1.0 10:1.0 
-0.5739055381624709 1:807657.0 2:6.0 3:1.0 4:3.0 5:2.0 6:2.0 7:1.0 8:1.0 9:1.0 10:1.0 
-0.5740303193402913 1:8233704.0 2:4.0 3:1.0 4:1.0 5:1.0 6:1.0 7:1.0 8:2.0 9:1.0 10:1.0 
-0.5745762358802239 1:867392.0 2:4.0 3:2.0 4:2.0 5:1.0 6:2.0 7:1.0 8:2.0 9:1.0 10:1.0 
-0.5742931261848734 1:869828.0 2:1.0 3:1.0 4:1.0 5:1.0 6:1.0 7:1.0 8:3.0 9:1.0 10:1.0 
-0.5742798356669052 1:1043068.0 2:3.0 3:1.0 4:1.0 5:1.0 6:2.0 7:1.0 8:2.0 9:1.0 10:1.0 
-0.574254095510701 1:1056171.0 2:2.0 3:1.0 4:1.0 5:1.0 6:2.0 7:1.0 8:2.0 9:1.0 10:1.0 
-0.4693447659398965 1:1061990.0 2:1.0 3:1.0 4:3.0 5:2.0 6:2.0 7:1.0 8:3.0 9:1.0 10:1.0 
-0.5742445339475977 1:1113061.0 2:5.0 3:1.0 4:1.0 5:1.0 6:2.0 7:1.0 8:3.0 9:1.0 10:1.0 
-0.49270785164196285 1:1116192.0 2:5.0 3:1.0 4:2.0 5:1.0 6:2.0 7:1.0 8:3.0 9:1.0 10:1.0 
-0.5742445339475977 1:1135090.0 2:4.0 3:1.0 4:1.0 5:1.0 6:2.0 7:1.0 8:2.0 9:1.0 10:1.0 
-0.5742767326970564 1:1145420.0 2:6.0 3:1.0 4:1.0 5:1.0 6:2.0 7:1.0 8:2.0 9:1.0 10:1.0 
-0.5743747314667761 1:1158157.0 2:5.0 3:1.0 4:1.0 5:1.0 6:2.0 7:2.0 8:2.0 9:1.0 10:1.0 
-0.5743747314667761 1:1171578.0 2:3.0 3:1.0 4:1.0 5:1.0 6:2.0 7:1.0 8:1.0 9:1.0 10:1.0 
-0.5743806594322008 1:1174841.0 2:5.0 3:3.0 4:1.0 5:1.0 6:2.0 7:1.0 8:1.0 9:1.0 10:1.0 
-0.5743806594322008 1:1184586.0 2:4.0 3:1.0 4:1.0 5:1.0 6:2.0 7:1.0 8:2.0 9:1.0 10:1.0 
-0.5745580702915124 1:1186936.0 2:2.0 3:1.0 4:3.0 5:2.0 6:2.0 7:1.0 8:2.0 9:1.0 10:1.0 
-0.5744812129370123 1:1197527.0 2:5.0 3:1.0 4:1.0 5:1.0 6:2.0 7:1.0 8:2.0 9:1.0 10:1.0 
-0.3006923909313585 1:1240603.0 2:2.0 3:1.0 4:1.0 5:1.0 6:1.0 7:1.0 8:1.0 9:1.0 10:1.0 
-0.3019483119929713 1:1240603.0 2:3.0 3:1.0 4:1.0 5:1.0 6:1.0 7:1.0 8:1.0 9:1.0 10:1.0 
-0.5747089388257665 1:1287971.0 2:3.0 3:1.0 4:1.0 5:1.0 6:2.0 7:1.0 8:2.0 9:1.0 10:1.0 
-0.5740316359132464 1:1289391.0 2:1.0 3:1.0 4:1.0 5:1.0 6:2.0 7:1.0 8:3.0 9:1.0 10:1.0 
-0.44081450926875154 1:1299924.0 2:3.0 3:2.0 4:2.0 5:2.0 6:2.0 7:1.0 8:4.0 9:2.0 10:1.0 
-0.5740012426429808 1:1306339.0 2:4.0 3:4.0 4:2.0 5:1.0 6:2.0 7:5.0 8:2.0 9:1.0 10:2.0 
-0.5737514512104467 1:1313658.0 2:3.0 3:1.0 4:1.0 5:1.0 6:2.0 7:1.0 8:1.0 9:1.0 10:1.0 
-0.5737514512104467 1:1313982.0 2:4.0 3:3.0 4:1.0 5:1.0 6:2.0 7:1.0 8:4.0 9:8.0 10:1.0 
-0.574365619569431 1:1321264.0 2:5.0 3:2.0 4:2.0 5:2.0 6:1.0 7:1.0 8:2.0 9:1.0 10:1.0 
-0.5743289287405318 1:1321321.0 2:5.0 3:1.0 4:1.0 5:3.0 6:2.0 7:1.0 8:1.0 9:1.0 10:1.0 
-0.5743152169839627 1:1321348.0 2:2.0 3:1.0 4:1.0 5:1.0 6:2.0 7:1.0 8:2.0 9:1.0 10:1.0 
-0.5745327380791624 1:1321931.0 2:5.0 3:1.0 4:1.0 5:1.0 6:2.0 7:1.0 8:2.0 9:1.0 10:1.0 
-0.07438391735029576 1:1321942.0 2:5.0 3:1.0 4:1.0 5:1.0 6:2.0 7:1.0 8:3.0 9:1.0 10:1.0 
-0.5 1:1321942.0 2:5.0 3:1.0 4:1.0 5:1.0 6:2.0 7:1.0 8:3.0 9:1.0 10:1.0 
-0.5743541356484247 1:1328331.0 2:1.0 3:1.0 4:1.0 5:1.0 6:2.0 7:1.0 8:3.0 9:1.0 10:1.0 
-0.573928998925221 1:1328755.0 2:3.0 3:1.0 4:1.0 5:1.0 6:2.0 7:1.0 8:2.0 9:1.0 10:1.0 
-0.573928998925221 1:1331405.0 2:4.0 3:1.0 4:1.0 5:1.0 6:2.0 7:1.0 8:3.0 9:2.0 10:1.0 
-0.5740050273016095 1:1333104.0 2:3.0 3:1.0 4:2.0 5:1.0 6:2.0 7:1.0 8:3.0 9:1.0 10:1.0 
-0.5740050273016095 1:1334071.0 2:4.0 3:1.0 4:1.0 5:1.0 6:2.0 7:3.0 8:2.0 9:1.0 10:1.0 
-0.5740050273016095 1:183936.0 2:3.0 3:1.0 4:1.0 5:1.0 6:2.0 7:1.0 8:2.0 9:1.0 10:1.0 
-0.5740050273016095 1:324382.0 2:1.0 3:1.0 4:1.0 5:1.0 6:2.0 7:1.0 8:2.0 9:1.0 10:1.0 
-0.4855198547142988 1:385103.0 2:5.0 3:1.0 4:2.0 5:1.0 6:2.0 7:1.0 8:3.0 9:1.0 10:1.0 
-0.5740050273016095 1:690557.0 2:5.0 3:1.0 4:1.0 5:1.0 6:2.0 7:1.0 8:2.0 9:1.0 10:1.0 
-0.574226821829389 1:695091.0 2:1.0 3:1.0 4:1.0 5:1.0 6:2.0 7:1.0 8:2.0 9:1.0 10:1.0 
-0.5740322536176545 1:695219.0 2:1.0 3:1.0 4:1.0 5:1.0 6:2.0 7:1.0 8:2.0 9:1.0 10:1.0 
-0.5740393667214032 1:824249.0 2:1.0 3:1.0 4:1.0 5:1.0 6:2.0 7:1.0 8:3.0 9:1.0 10:1.0 
-0.5740435915518307 1:871549.0 2:5.0 3:1.0 4:2.0 5:1.0 6:2.0 7:1.0 8:2.0 9:1.0 10:1.0 
-0.5740483636036515 1:1115762.0 2:3.0 3:1.0 4:1.0 5:1.0 6:2.0 7:1.0 8:1.0 9:1.0 10:1.0 
-0.5740483636036515 1:1217717.0 2:5.0 3:1.0 4:1.0 5:6.0 6:3.0 7:1.0 8:1.0 9:1.0 10:1.0 
-0.5740483636036515 1:1239420.0 2:1.0 3:1.0 4:1.0 5:1.0 6:2.0 7:1.0 8:1.0 9:1.0 10:1.0 
-0.5740483636036515 1:1261751.0 2:5.0 3:1.0 4:1.0 5:1.0 6:2.0 7:1.0 8:2.0 9:2.0 10:1.0 
-0.5740233324556188 1:1272166.0 2:5.0 3:1.0 4:1.0 5:1.0 6:2.0 7:1.0 8:1.0 9:1.0 10:1.0 
-0.5740597916239436 1:1311875.0 2:5.0 3:1.0 4:2.0 5:1.0 6:2.0 7:1.0 8:1.0 9:1.0 10:1.0 
-0.5740597916239436 1:1320141.0 2:5.0 3:1.0 4:1.0 5:1.0 6:2.0 7:1.0 8:2.0 9:1.0 10:1.0 
-0.5740597916239436 1:1325309.0 2:4.0 3:1.0 4:2.0 5:1.0 6:2.0 7:1.0 8:2.0 9:1.0 10:1.0 
-0.5747284725011284 1:1333063.0 2:5.0 3:1.0 4:3.0 5:1.0 6:2.0 7:1.0 8:3.0 9:1.0 10:1.0 
-0.5747284725011284 1:1333495.0 2:3.0 3:1.0 4:1.0 5:1.0 6:2.0 7:1.0 8:2.0 9:1.0 10:1.0 
-0.5742137689795441 1:1334659.0 2:5.0 3:2.0 4:4.0 5:1.0 6:1.0 7:1.0 8:1.0 9:1.0 10:1.0 
-0.5747284725011284 1:1336798.0 2:3.0 3:1.0 4:1.0 5:1.0 6:2.0 7:1.0 8:2.0 9:1.0 10:1.0 
-0.5747284725011284 1:1344449.0 2:1.0 3:1.0 4:1.0 5:1.0 6:1.0 7:1.0 8:2.0 9:1.0 10:1.0 
-0.5746319490825326 1:1350568.0 2:4.0 3:1.0 4:1.0 5:1.0 6:2.0 7:1.0 8:2.0 9:1.0 10:1.0 
-0.5744217424876128 1:353098.0 2:4.0 3:1.0 4:1.0 5:2.0 6:2.0 7:1.0 8:1.0 9:1.0 10:1.0 
-0.5057464026995292 1:411453.0 2:1.0 3:1.0 4:1.0 5:1.0 6:2.0 7:1.0 8:1.0 9:1.0 10:1.0 
-0.5744217424876128 1:636375.0 2:5.0 3:1.0 4:1.0 5:1.0 6:2.0 7:1.0 8:1.0 9:1.0 10:1.0 
-0.5740497972101016 1:1016634.0 2:2.0 3:3.0 4:1.0 5:1.0 6:2.0 7:1.0 8:2.0 9:1.0 10:1.0 
-0.5739722058841419 1:1031608.0 2:2.0 3:1.0 4:1.0 5:1.0 6:1.0 7:1.0 8:2.0 9:1.0 10:1.0 
-0.5739177204668443 1:1041043.0 2:4.0 3:1.0 4:3.0 5:1.0 6:2.0 7:1.0 8:2.0 9:1.0 10:1.0 
-0.5739177204668443 1:1042252.0 2:3.0 3:1.0 4:1.0 5:1.0 6:2.0 7:1.0 8:2.0 9:1.0 10:1.0 
-0.4691433884344399 1:1061990.0 2:4.0 3:1.0 4:1.0 5:1.0 6:2.0 7:1.0 8:2.0 9:1.0 10:1.0 
-0.5739177204668443 1:1073836.0 2:5.0 3:1.0 4:1.0 5:1.0 6:2.0 7:1.0 8:2.0 9:1.0 10:1.0 
-0.5741054516337564 1:1083817.0 2:3.0 3:1.0 4:1.0 5:1.0 6:2.0 7:1.0 8:2.0 9:1.0 10:1.0 
-0.5740050273016095 1:1096352.0 2:6.0 3:3.0 4:3.0 5:3.0 6:3.0 7:2.0 8:6.0 9:1.0 10:1.0 
-0.5740483636036515 1:1140597.0 2:7.0 3:1.0 4:2.0 5:3.0 6:2.0 7:1.0 8:2.0 9:1.0 10:1.0 
-0.5740915974574625 1:1149548.0 2:1.0 3:1.0 4:1.0 5:1.0 6:2.0 7:1.0 8:1.0 9:1.0 10:1.0 
-0.5745763391253655 1:1174009.0 2:5.0 3:1.0 4:1.0 5:2.0 6:1.0 7:1.0 8:2.0 9:1.0 10:1.0 
-0.5740003563479082 1:1183596.0 2:3.0 3:1.0 4:3.0 5:1.0 6:3.0 7:4.0 8:1.0 9:1.0 10:1.0 
-0.5743911368012394 1:1190546.0 2:2.0 3:1.0 4:1.0 5:1.0 6:2.0 7:5.0 8:1.0 9:1.0 10:1.0 
-0.5742798356669052 1:1213273.0 2:2.0 3:1.0 4:1.0 5:1.0 6:2.0 7:1.0 8:1.0 9:1.0 10:1.0 
-0.5745013568052357 1:1218982.0 2:4.0 3:1.0 4:1.0 5:1.0 6:2.0 7:1.0 8:1.0 9:1.0 10:1.0 
-0.5742268216908681 1:1225382.0 2:6.0 3:2.0 4:3.0 5:1.0 6:2.0 7:1.0 8:1.0 9:1.0 10:1.0 
-0.5739054315037753 1:1235807.0 2:5.0 3:1.0 4:1.0 5:1.0 6:2.0 7:1.0 8:2.0 9:1.0 10:1.0 
-0.5440955356082365 1:1238777.0 2:1.0 3:1.0 4:1.0 5:1.0 6:2.0 7:1.0 8:1.0 9:1.0 10:1.0 
-0.5745580702915124 1:1257366.0 2:3.0 3:1.0 4:1.0 5:1.0 6:2.0 7:1.0 8:1.0 9:1.0 10:1.0 
-0.5739025703869858 1:1260659.0 2:3.0 3:1.0 4:4.0 5:1.0 6:2.0 7:1.0 8:1.0 9:1.0 10:1.0 
-0.5743321145927187 1:1275807.0 2:4.0 3:2.0 4:4.0 5:3.0 6:2.0 7:2.0 8:2.0 9:1.0 10:1.0 
-0.3577290840307794 1:1277792.0 2:4.0 3:1.0 4:1.0 5:1.0 6:2.0 7:1.0 8:1.0 9:1.0 10:1.0 
-0.3577290840307794 1:1277792.0 2:5.0 3:1.0 4:1.0 5:3.0 6:2.0 7:1.0 8:1.0 9:1.0 10:1.0 
-0.5746319490825326 1:1285722.0 2:4.0 3:1.0 4:1.0 5:3.0 6:2.0 7:1.0 8:1.0 9:1.0 10:1.0 
-0.5744688720220072 1:1288608.0 2:3.0 3:1.0 4:1.0 5:1.0 6:2.0 7:1.0 8:2.0 9:1.0 10:1.0 
-0.574255424411377 1:1290203.0 2:3.0 3:1.0 4:1.0 5:1.0 6:2.0 7:1.0 8:2.0 9:1.0 10:1.0 
-0.5739107635372853 1:1294413.0 2:1.0 3:1.0 4:1.0 5:1.0 6:2.0 7:1.0 8:1.0 9:1.0 10:1.0 
-0.5739385585147144 1:1299596.0 2:2.0 3:1.0 4:1.0 5:1.0 6:2.0 7:1.0 8:1.0 9:1.0 10:1.0 
-0.5737524245622481 1:1303489.0 2:3.0 3:1.0 4:1.0 5:1.0 6:2.0 7:1.0 8:2.0 9:1.0 10:1.0 
-0.5737524245618555 1:1311033.0 2:1.0 3:2.0 4:2.0 5:1.0 6:2.0 7:1.0 8:1.0 9:1.0 10:1.0 
-0.5741617624639903 1:1311108.0 2:1.0 3:1.0 4:1.0 5:3.0 6:2.0 7:1.0 8:1.0 9:1.0 10:1.0 
-0.5741394500952225 1:1318671.0 2:3.0 3:1.0 4:1.0 5:1.0 6:2.0 7:1.0 8:2.0 9:1.0 10:1.0 
-0.5740303193402913 1:1319609.0 2:3.0 3:1.0 4:1.0 5:2.0 6:3.0 7:4.0 8:1.0 9:1.0 10:1.0 
-0.5740303193402913 1:1323477.0 2:1.0 3:2.0 4:1.0 5:3.0 6:2.0 7:1.0 8:2.0 9:1.0 10:1.0 
-0.5740233324556188 1:1324572.0 2:5.0 3:1.0 4:1.0 5:1.0 6:2.0 7:1.0 8:2.0 9:2.0 10:1.0 
-0.5740233324556188 1:1324681.0 2:4.0 3:1.0 4:1.0 5:1.0 6:2.0 7:1.0 8:2.0 9:1.0 10:1.0 
-0.5739025703869858 1:1325159.0 2:3.0 3:1.0 4:1.0 5:1.0 6:2.0 7:1.0 8:3.0 9:1.0 10:1.0 
-0.5739025703869858 1:1326892.0 2:3.0 3:1.0 4:1.0 5:1.0 6:2.0 7:1.0 8:2.0 9:1.0 10:1.0 
-0.5739992544344579 1:1330361.0 2:5.0 3:1.0 4:1.0 5:1.0 6:2.0 7:1.0 8:2.0 9:1.0 10:1.0 
-0.5739716780698906 1:1333877.0 2:5.0 3:4.0 4:5.0 5:1.0 6:8.0 7:1.0 8:3.0 9:6.0 10:1.0 
-0.5741631312367764 1:1334667.0 2:1.0 3:1.0 4:1.0 5:1.0 6:2.0 7:1.0 8:1.0 9:1.0 10:1.0 
-0.41970519279282376 1:1339781.0 2:1.0 3:1.0 4:1.0 5:1.0 6:2.0 7:1.0 8:2.0 9:1.0 10:1.0 
-0.41970519279282376 1:1339781.0 2:4.0 3:1.0 4:1.0 5:1.0 6:2.0 7:1.0 8:3.0 9:1.0 10:1.0 
-0.5738683676705993 1:1.3454352E7 2:1.0 3:1.0 4:3.0 5:1.0 6:2.0 7:1.0 8:2.0 9:1.0 10:1.0 
-0.5738683676705993 1:1345452.0 2:1.0 3:1.0 4:3.0 5:1.0 6:2.0 7:1.0 8:2.0 9:1.0 10:1.0 
-0.5740050273016095 1:1345593.0 2:3.0 3:1.0 4:1.0 5:3.0 6:2.0 7:1.0 8:2.0 9:1.0 10:1.0 
-0.5740050273016095 1:1347749.0 2:1.0 3:1.0 4:1.0 5:1.0 6:2.0 7:1.0 8:1.0 9:1.0 10:1.0 
-0.5740050273016095 1:1347943.0 2:5.0 3:2.0 4:2.0 5:2.0 6:2.0 7:1.0 8:1.0 9:1.0 10:2.0 
-0.5739911752752958 1:1348851.0 2:3.0 3:1.0 4:1.0 5:1.0 6:2.0 7:1.0 8:3.0 9:1.0 10:1.0 
-0.5739911752752958 1:1353092.0 2:3.0 3:2.0 4:1.0 5:2.0 6:2.0 7:1.0 8:3.0 9:1.0 10:1.0 
-0.49968879622191065 1:1354840.0 2:2.0 3:1.0 4:1.0 5:1.0 6:2.0 7:1.0 8:3.0 9:1.0 10:1.0 
-0.4994621321600211 1:1354840.0 2:5.0 3:3.0 4:2.0 5:1.0 6:3.0 7:1.0 8:1.0 9:1.0 10:1.0 
-0.5739699843155744 1:1355260.0 2:1.0 3:1.0 4:1.0 5:1.0 6:2.0 7:1.0 8:2.0 9:1.0 10:1.0 
-0.5739699843155744 1:1365075.0 2:4.0 3:1.0 4:4.0 5:1.0 6:2.0 7:1.0 8:1.0 9:1.0 10:1.0 
-0.5739009639436621 1:1365328.0 2:1.0 3:1.0 4:2.0 5:1.0 6:2.0 7:1.0 8:2.0 9:1.0 10:1.0 
-0.5713508223499101 1:1368267.0 2:5.0 3:1.0 4:1.0 5:1.0 6:2.0 7:1.0 8:1.0 9:1.0 10:1.0 
-0.5713318665952276 1:1368273.0 2:1.0 3:1.0 4:1.0 5:1.0 6:2.0 7:1.0 8:1.0 9:1.0 10:1.0 
-0.5739008870075122 1:1368882.0 2:2.0 3:1.0 4:1.0 5:1.0 6:2.0 7:1.0 8:1.0 9:1.0 10:1.0 
-0.5738434853920076 1:1371920.0 2:5.0 3:1.0 4:1.0 5:1.0 6:2.0 7:1.0 8:3.0 9:2.0 10:1.0 
-0.01135525992754699 1:466906.0 2:1.0 3:1.0 4:1.0 5:1.0 6:2.0 7:1.0 8:1.0 9:1.0 10:1.0 
-0.5625 1:466906.0 2:1.0 3:1.0 4:1.0 5:1.0 6:2.0 7:1.0 8:1.0 9:1.0 10:1.0 
-0.573879561510769 1:534555.0 2:1.0 3:1.0 4:1.0 5:1.0 6:2.0 7:1.0 8:1.0 9:1.0 10:1.0 
-0.573928998925221 1:536708.0 2:1.0 3:1.0 4:1.0 5:1.0 6:2.0 7:1.0 8:1.0 9:1.0 10:1.0 
-0.573928998925221 1:566346.0 2:3.0 3:1.0 4:1.0 5:1.0 6:2.0 7:1.0 8:2.0 9:3.0 10:1.0 
-0.573928998925221 1:603148.0 2:4.0 3:1.0 4:1.0 5:1.0 6:2.0 7:1.0 8:1.0 9:1.0 10:1.0 
-0.5716220079200016 1:654546.0 2:1.0 3:1.0 4:1.0 5:1.0 6:2.0 7:1.0 8:1.0 9:1.0 10:8.0 
-0.5717230342714468 1:654546.0 2:1.0 3:1.0 4:1.0 5:3.0 6:2.0 7:1.0 8:1.0 9:1.0 10:1.0 
-0.573928998925221 1:714039.0 2:3.0 3:1.0 4:1.0 5:1.0 6:2.0 7:1.0 8:1.0 9:1.0 10:1.0 
-0.5743152169839627 1:763235.0 2:3.0 3:1.0 4:1.0 5:1.0 6:2.0 7:1.0 8:2.0 9:1.0 10:2.0 
-0.5743053967813794 1:776715.0 2:3.0 3:1.0 4:1.0 5:1.0 6:3.0 7:2.0 8:1.0 9:1.0 10:1.0 
-0.5743053967813794 1:841769.0 2:2.0 3:1.0 4:1.0 5:1.0 6:2.0 7:1.0 8:1.0 9:1.0 10:1.0 
